tree
version=v4
num_class=1
num_tree_per_iteration=1
label_index=0
max_feature_idx=107
objective=binary sigmoid:1
feature_names=Column_0 Column_1 Column_2 Column_3 Column_4 Column_5 Column_6 Column_7 Column_8 Column_9 Column_10 Column_11 Column_12 Column_13 Column_14 Column_15 Column_16 Column_17 Column_18 Column_19 Column_20 Column_21 Column_22 Column_23 Column_24 Column_25 Column_26 Column_27 Column_28 Column_29 Column_30 Column_31 Column_32 Column_33 Column_34 Column_35 Column_36 Column_37 Column_38 Column_39 Column_40 Column_41 Column_42 Column_43 Column_44 Column_45 Column_46 Column_47 Column_48 Column_49 Column_50 Column_51 Column_52 Column_53 Column_54 Column_55 Column_56 Column_57 Column_58 Column_59 Column_60 Column_61 Column_62 Column_63 Column_64 Column_65 Column_66 Column_67 Column_68 Column_69 Column_70 Column_71 Column_72 Column_73 Column_74 Column_75 Column_76 Column_77 Column_78 Column_79 Column_80 Column_81 Column_82 Column_83 Column_84 Column_85 Column_86 Column_87 Column_88 Column_89 Column_90 Column_91 Column_92 Column_93 Column_94 Column_95 Column_96 Column_97 Column_98 Column_99 Column_100 Column_101 Column_102 Column_103 Column_104 Column_105 Column_106 Column_107
feature_infos=[17:90] [12285:1484705] [1:16] [0:99999] [0:4356] [1:99] [0:1] [0:1] [0:1] none [0:1] [0:1] [0:1] [0:1] none [0:1] [0:1] [0:1] [0:1] [0:1] [0:1] [0:1] [0:1] [0:1] [0:1] [0:1] [0:1] [0:1] [0:1] [0:1] [0:1] [0:1] none [0:1] [0:1] [0:1] [0:1] [0:1] [0:1] [0:1] none [0:1] [0:1] [0:1] [0:1] [0:1] [0:1] [0:1] [0:1] [0:1] [0:1] [0:1] [0:1] [0:1] [0:1] [0:1] [0:1] [0:1] [0:1] [0:1] [0:1] [0:1] [0:1] [0:1] [0:1] [0:1] [0:1] none [0:1] [0:1] [0:1] [0:1] [0:1] [0:1] [0:1] [0:1] [0:1] [0:1] [0:1] [0:1] [0:1] none none none none [0:1] [0:1] none [0:1] [0:1] [0:1] none [0:1] [0:1] none [0:1] [0:1] [0:1] [0:1] [0:1] none [0:1] [0:1] none none [0:1] [0:1] none
tree_sizes=1687 1688 1698 1790 1800 1793 1803 1798 1798 1703 1811 1794 1719 1602 1829 1715 1822 1706 1709 1719 1832 1730 1706 1732 1832 1752 1512 1812 1614 1737 1722 1531 1823 1830 1751 1499 1718 1635 1614 1731 1527 1633 1725 1826 1520 1700 1517 1727 1509 1871 1522 1802 1519 1741 1829 1715 1716 1525 1719 1817 1527 1398 1512 1420 1850 1493 1513 1704 1300 1530 1732 1594 1734 1534 1530 1598 1852 1595 1393 1532 1501 1514 1488 1830 1524 1738 1743 1283 1826 1838 1496 1839 1717 1410 1639 1291 1429 1521 1483 1634 1621 1537 1492 1518 1593 1864 1185 1616 1301 1811 1333 1496 1507 1211 1510 1433 1495 1506 1740 1832 1733 1418 1611 1844 1518 1202 1704 1493 1412 1508 1746 1750 1504 1431 1413 1212 1635 1491 1309 1703 1619 1840 1527 1506 1488 1640 1429 1211 1520 1525 1722 974 1626 1826 1743 1316 882 1282 1416 1535 1209 1734 1708 1427 994 1758 1203 1068 1506 1841 1317 1405 1502 1510 1221 1300 1642 1745 1733 1425 1198 1703 1526 1492 1530 1495 1420 1639 1225 1734 1290 1400 1324 1609 1104 1205 1636 1498 1430 1208 1519 1534 1612 1519 1107 1506 1622 1516 1528 1839 1323 1713 1491 1629 1216 1502 1501 1534 1207 1542 1710 1616 1094 1602 1524 1516 1611 993 1319 1399 1513 1750 1533 1286 1322 999 1415 1508 1746 1517 1521 1724 1208 1422 1327 1642 1844 1410 1727 1384 1509 1330 1636 1528 1625 1842 1412 1599 998 1617 1114 1110 1636 1093 1319 1298 1538 1741 1384 1514 1743 1524 1301 1611 989 1405 1220 1626 1742 1535 1854 1729 1752 1639 1308 1623 1546 1425 1506 1007 1322 1632 1317 1401 1096 1525 1000 1523 1705 1743 1639 1318 1480 1742 1731 1288 1005 1501 1618 1839 1839 1098 1733 1704 1111 1627 1524 1433 1852 1313 1532 1403 1748 1516 1841 1519 1833 1122 1408 1327 1541 1516 1735 1723 1490 1007 1732 1839 1622 1841 1390 1645 1486 1406 1431 1524 1322 1747 1417 1218 1728 1837 1630 1397 1728 1115 1636 1618 1623 1509 1536 1841 1533 1728 1647 1525 983 1520 1390 1276 1640 1422 1640 1843 1431 1487 1395 1631 1536 1409 1323 1644 1004 1526 1390 1720 1518 1847 1624 1626 1412 1643 1187 1507 1536 1534 1424 1631 1419 1732

Tree=0
num_leaves=15
num_cat=0
split_feature=33 2 3 3 2 3 2 4 5 4 0 5 2 0
split_gain=5139.02 2033.63 1156.28 1032.89 347.867 271.509 189.154 166.139 124.855 56.0328 9.07276 8.04136 0.569825 0.331433
threshold=1.0000000180025095e-35 12.500000000000002 7073.5000000000009 5036.5000000000009 8.5000000000000018 5036.5000000000009 12.500000000000002 1834.5000000000002 43.500000000000007 2218.5000000000005 60.500000000000007 35.500000000000007 10.500000000000002 62.500000000000007
decision_type=2 2 2 2 2 2 2 2 2 2 2 2 2 2
left_child=2 3 6 4 -2 7 9 -3 -8 -1 -5 -4 -13 -7
right_child=1 5 11 10 -6 13 8 -9 -10 -11 -12 12 -14 -15
leaf_value=-1.2729193569855328 -1.2310767120732167 -0.93758571535677282 -0.8787116765671743 -0.73651913466919905 -1.0999823217131188 -0.73651913466919905 -1.2375388019760987 -0.75747927278336824 -1.1308386329122297 -1.0268786950154847 -0.84000157755990879 -0.76263613216066384 -0.73651913466919905 -0.75511089559532651
leaf_weight=2015.4726618528366 243.04550915956497 485.9086886048317 4.922902286052703 68.738302290439606 1210.8516326546669 88.247581720352173 341.50355488061905 57.251530289649963 161.54412686824799 9.2988154292106611 9.6634748578071576 11.486772000789641 30.631392002105713 10.757453143596647
leaf_count=11054 1333 2665 27 377 6641 484 1873 314 886 51 53 63 168 59
internal_value=-1.15342 -1.04023 -1.24901 -1.10283 -1.1219 -0.890841 -1.25815 -0.918602 -1.20327 -1.27179 -0.749274 -0.757777 -0.743642 -0.738539
internal_weight=0 2174.46 2574.86 1532.3 1453.9 642.165 2527.82 543.16 503.048 2024.77 78.4018 47.0411 42.1182 99.005
internal_count=26048 11926 14122 8404 7974 3522 13864 2979 2759 11105 430 258 231 543
is_linear=0
shrinkage=1


Tree=1
num_leaves=15
num_cat=0
split_feature=33 2 3 3 4 2 3 5 4 0 0 5 57 5
split_gain=4129.26 1335.06 857.176 624.053 273.182 183.321 172.461 123.245 92.8701 42.5288 5.06863 3.96262 0.307873 0.163132
threshold=1.0000000180025095e-35 11.500000000000002 7073.5000000000009 5036.5000000000009 1789.0000000000002 13.500000000000002 5036.5000000000009 31.500000000000004 2218.5000000000005 32.500000000000007 61.500000000000007 35.500000000000007 1.0000000180025095e-35 29.500000000000004
decision_type=2 2 2 2 2 2 2 2 2 2 2 2 2 2
left_child=2 3 5 4 -2 8 7 -3 -1 -7 -5 -4 -13 -8
right_child=1 6 11 10 -6 9 13 -9 -10 -11 -12 12 -14 -15
leaf_value=-0.10835174552838395 0.015568371306468869 0.044105309740310815 0.21573588778644057 0.30813945384135971 0.25126959519511055 -0.079387384126331131 0.28877756547271954 0.19359294672698257 0.15491816800972733 0.048858321682428318 0.22741089179134855 0.30799101656634958 0.28734686238437107 0.30847102409294325
leaf_weight=2243.6060700714588 1361.2816253304482 60.61711385846138 5.5980440676212302 78.306084588170052 51.016066044569016 35.314678847789764 4.3574817329645148 611.70997947454453 13.479540631175039 96.565240025520325 8.6350687444210035 41.709785342216492 8.7372748553752881 121.20460522174835
leaf_count=13053 7352 301 27 358 274 198 20 3026 71 542 41 191 40 554
internal_value=0 0.0957053 -0.0910145 0.0400901 0.0240825 -0.100083 0.200207 0.180115 -0.106779 0.0145168 0.300121 0.295558 0.304416 0.307788
internal_weight=0 2297.13 2445.01 1499.24 1412.3 2388.97 797.889 672.327 2257.09 131.88 86.9412 56.0451 50.4471 125.562
internal_count=26048 11926 14122 8025 7626 13864 3901 3327 13124 740 399 258 231 574
is_linear=0
shrinkage=0.1


Tree=2
num_leaves=15
num_cat=0
split_feature=33 2 3 3 3 0 2 2 0 4 5 0 0 26
split_gain=3374.01 1009.92 681.377 289.784 275.914 226.658 179.907 142.337 111.664 41.8215 2.76534 2.67028 0.915611 0.281348
threshold=1.0000000180025095e-35 9.5000000000000018 7073.5000000000009 5036.5000000000009 5036.5000000000009 33.500000000000007 12.500000000000002 7.5000000000000009 29.500000000000004 2429.5000000000005 35.500000000000007 60.500000000000007 62.500000000000007 1.0000000180025095e-35
decision_type=2 2 2 2 2 2 2 2 2 2 2 2 2 2
left_child=2 3 6 7 5 -3 9 -2 -8 -1 -4 -5 -6 -12
right_child=1 4 10 11 12 -7 8 -9 -10 -11 13 -13 -14 -15
leaf_value=-0.11107412246078044 -0.077850855010321851 0.042160737610188424 0.17853319324599368 0.25347687334853525 0.25371008825277375 0.14388005930778877 -0.10610473922129754 0.01423713268459351 -0.0044300488811148111 0.17883530316134061 0.25256906309343868 0.18185919951937085 0.23018031730125055 0.23183776182815508
leaf_weight=1779.5851595848799 219.30087454617023 286.54330950975418 6.0594171434640876 42.04157018661499 165.48074293136597 930.17356242239475 168.03832440078259 715.35602843761444 302.39653988182545 4.9898890256881705 47.455904185771942 5.9419472813606253 18.373962894082069 7.5937283337116233
leaf_count=11081 1240 1414 27 176 693 4520 1007 3779 1752 24 199 26 78 32
internal_value=0 0.0826518 -0.0868326 0.00493469 0.137178 0.119925 -0.0957613 -0.0073697 -0.040748 -0.110264 0.242652 0.244608 0.251359 0.249709
internal_weight=0 2383.21 2316.12 982.64 1400.57 1216.72 2255.01 934.657 470.435 1784.58 61.109 47.9835 183.855 55.0496
internal_count=26048 11926 14122 5221 6705 5934 13864 5019 2759 11105 258 202 771 231
is_linear=0
shrinkage=0.1


Tree=3
num_leaves=16
num_cat=0
split_feature=33 2 3 3 2 2 5 5 3 4 58 3 3 0 3
split_gain=2784.63 780.62 568.763 370.96 214.673 160.662 107.654 78.7694 50.8399 38.0628 33.1922 29.6129 45.7569 2.85464 2.19036
threshold=1.0000000180025095e-35 12.500000000000002 4668.5000000000009 5036.5000000000009 8.5000000000000018 12.500000000000002 43.500000000000007 31.500000000000004 5036.5000000000009 2218.5000000000005 1.0000000180025095e-35 7792.0000000000009 5036.5000000000009 60.500000000000007 30961.500000000004
decision_type=2 2 2 2 2 2 2 2 2 2 2 2 2 2 2
left_child=2 3 5 4 -2 9 -7 10 -9 -1 -3 12 -4 -5 -13
right_child=1 7 11 13 -6 6 -8 8 -10 -11 -12 14 -14 -15 -16
leaf_value=-0.10841569463915837 -0.069977073078708818 0.0028652073991543795 0.27676067840610885 0.21910156881564435 0.035498146790728484 -0.074469498651733426 0.029028721540595472 0.14962890978495144 0.21875007475158809 0.080948701412084906 0.16585350017799527 0.22199996477393139 -0.052476712667842387 0.16868677632023543 0.16370150775189346
leaf_weight=1649.0421627312899 226.59653641283512 47.163571998476982 6.6946202516555813 93.533623784780502 1300.1034709215164 301.3811950981617 150.7779383212328 619.66883215308189 128.47119516134262 10.683373108506201 16.997696295380592 53.069790422916412 11.425360128283499 12.764164313673971 7.3355021029710761
leaf_count=11003 1333 215 41 377 6641 1855 862 2712 518 51 77 215 65 53 30
internal_value=0 0.0722688 -0.0829746 0.0324196 0.0198433 -0.0928006 -0.0399568 0.152379 0.161498 -0.107197 0.0460443 0.181286 0.0691636 0.213048 0.21492
internal_weight=0 2445.3 2190.41 1633 1526.7 2111.88 452.159 812.301 748.14 1659.73 64.1613 78.5253 18.12 106.298 60.4053
internal_count=26048 11926 14122 8404 7974 13771 2717 3522 3230 11054 292 351 106 430 245
is_linear=0
shrinkage=0.1


Tree=4
num_leaves=16
num_cat=0
split_feature=33 2 3 0 3 2 3 4 0 4 3 3 0 0 0
split_gain=2317.52 617.931 476.141 192.478 183.026 153.569 144.119 117.933 94.3138 33.7302 25.238 52.5866 16.5808 2.0571 2.05698
threshold=1.0000000180025095e-35 9.5000000000000018 4668.5000000000009 27.500000000000004 5036.5000000000009 12.500000000000002 5036.5000000000009 1789.0000000000002 27.500000000000004 2218.5000000000005 7792.0000000000009 4826.0000000000009 24.500000000000004 60.500000000000007 25.500000000000004
decision_type=2 2 2 2 2 2 2 2 2 2 2 2 2 2 2
left_child=2 4 5 12 7 9 -5 -2 -7 -1 11 -4 -3 -6 -12
right_child=1 3 10 6 13 8 -8 -9 -10 -11 14 -13 -14 -15 -16
leaf_value=-0.10508038069424115 -0.014664327163850778 -0.09828230676849975 0.37625717693610033 0.10071834534511476 0.19567637355183143 -0.11151165704267126 0.19428134468326774 0.17414982137644563 -0.0082967746908045384 0.070538597043210735 0.13100275830305916 -0.028792226765817039 -0.0071542902592286912 0.13498176264473258 0.19664946341115719
leaf_weight=1537.0441221147776 899.14518794417381 29.741714119911194 4.0900490880012539 1219.9411420375109 43.97851824760437 122.56952314078808 190.31481632590294 34.343606680631638 318.77877600491047 11.014816224575041 5.2188526988029471 14.816098153591154 60.749351531267166 6.3962787091732016 55.888323947787285
leaf_count=11003 4855 146 21 5509 176 812 762 164 1905 51 21 85 288 26 224
internal_value=0 0.0638941 -0.0793761 0.104273 0.00230165 -0.0889958 0.113345 -0.00771774 -0.0369612 -0.103831 0.159804 0.0588339 -0.0371054 0.18797 0.191043
internal_weight=0 2484.61 2069.42 1500.75 983.864 1989.41 1410.26 933.489 441.348 1548.06 80.0133 18.9061 90.4911 50.3748 61.1072
internal_count=26048 11926 14122 6705 5221 13771 6271 5019 2717 11054 351 106 434 202 245
is_linear=0
shrinkage=0.1


Tree=5
num_leaves=16
num_cat=0
split_feature=33 2 3 3 0 5 2 4 3 2 3 3 3 4 5
split_gain=1937.51 508.966 402.826 255.871 192.838 148.225 86.1866 64.3387 73.8875 47.0707 22.2736 42.1662 14.4448 4.89246 2.71148
threshold=1.0000000180025095e-35 12.500000000000002 4668.5000000000009 4243.5000000000009 35.500000000000007 43.500000000000007 12.500000000000002 1834.5000000000002 5036.5000000000009 13.500000000000002 7073.5000000000009 4826.0000000000009 4462.0000000000009 2001.5000000000002 35.500000000000007
decision_type=2 2 2 2 2 2 2 2 2 2 2 2 2 2 2
left_child=2 3 5 4 -2 9 -7 8 -3 -1 11 -4 -5 -9 -12
right_child=1 7 10 12 -6 6 -8 13 -10 -11 14 -13 -14 -15 -16
leaf_value=-0.10385450911072279 -0.037891349408030683 0.096827728187932768 0.29044668505519866 0.2739691062375374 0.037868826234927169 -0.06783305251612029 0.028651695151066872 0.21800007590475656 0.17850753072931005 -0.021795176274193979 0.11031830515158531 -0.064598662647654737 0.15209584749001037 0.15185062599552979 0.17759532405253764
leaf_weight=1409.9294771999121 495.99052162468433 638.87258245050907 4.7255875170230892 10.633796185255049 1041.4349144995213 239.49119307100773 150.92478640377522 64.125945791602135 133.97403860092163 73.549386709928513 6.6938485950231543 11.44960944354534 113.80960969626904 13.542007774114607 57.024062737822533
leaf_count=10634 2565 2665 21 53 5316 1827 862 259 543 448 27 72 470 55 231
internal_value=0 0.0567904 -0.0759822 0.0245913 0.0134278 -0.0853579 -0.0305345 0.119706 0.110987 -0.0997861 0.143924 0.0391279 0.16251 0.206466 0.170528
internal_weight=0 2512.38 1953.79 1661.87 1537.43 1873.89 390.416 850.515 772.847 1483.48 79.8931 16.1752 124.443 77.668 63.7179
internal_count=26048 11926 14122 8404 7881 13771 2689 3522 3208 11082 351 93 523 314 258
is_linear=0
shrinkage=0.1


Tree=6
num_leaves=16
num_cat=0
split_feature=33 2 3 2 3 4 3 2 0 5 3 3 0 3 0
split_gain=1626.35 420.683 343.404 142.917 139.304 150.994 130.676 96.9042 84.2154 32.2755 19.4556 26.945 2.25458 1.91619 0.903849
threshold=1.0000000180025095e-35 9.5000000000000018 4668.5000000000009 12.500000000000002 5036.5000000000009 1789.0000000000002 5036.5000000000009 7.5000000000000009 27.500000000000004 41.500000000000007 7792.0000000000009 4826.0000000000009 60.500000000000007 30961.500000000004 62.500000000000007
decision_type=2 2 2 2 2 2 2 2 2 2 2 2 2 2 2
left_child=2 6 3 9 5 -3 7 -2 -5 -1 11 -4 -8 -12 -6
right_child=1 4 10 8 14 -7 12 -9 -10 -11 13 -13 -14 -15 -16
leaf_value=-0.104948439317474 -0.069821861350884182 0.062428814922199739 0.24296628828350914 -0.10653032921414413 0.16700857545905251 0.18557821606074645 0.16757237484276841 0.0082937295161415858 -0.0042983656085957053 -0.06461566848566519 0.16726442278514639 -0.025665738266834118 0.10430683485295529 0.11269017279300807 0.14400841101068326
leaf_weight=1104.9001146480441 202.66015554964542 1249.4775768369436 5.0623514056205776 108.83761431276798 166.38606913387775 108.18289501965046 42.352298974990845 733.88051883876324 310.33777467906475 241.83296322822571 51.776576578617096 14.228738963603972 6.4970059394836417 7.3466162979602805 19.041020095348358
leaf_count=9118 1240 5490 21 812 693 444 176 3779 1905 1936 215 85 26 30 78
internal_value=0 0.0507503 -0.0727417 -0.0818345 0.0833457 0.0722418 -0.000293026 -0.00860988 -0.0308426 -0.0977059 0.13203 0.0448284 0.159158 0.160483 0.164647
internal_weight=0 2528.48 1844.32 1765.91 1543.09 1357.66 985.39 936.541 419.175 1346.73 78.4143 19.2911 48.8493 59.1232 185.427
internal_count=26048 11926 14122 13771 6705 5934 5221 5019 2717 11054 351 106 202 245 771
is_linear=0
shrinkage=0.1


Tree=7
num_leaves=16
num_cat=0
split_feature=33 2 3 3 0 5 2 5 4 3 58 3 3 0 5
split_gain=1369.16 354.852 293.848 184.855 161.857 138.639 69.7124 58.0274 46.804 34.9072 22.916 17.6226 25.8945 3.31792 2.81305
threshold=1.0000000180025095e-35 12.500000000000002 4668.5000000000009 5036.5000000000009 29.500000000000004 43.500000000000007 12.500000000000002 31.500000000000004 2218.5000000000005 5036.5000000000009 1.0000000180025095e-35 7073.5000000000009 4826.0000000000009 60.500000000000007 35.500000000000007
decision_type=2 2 2 2 2 2 2 2 2 2 2 2 2 2 2
left_child=2 3 5 4 -2 8 -7 10 -1 -9 -3 12 -4 -5 -13
right_child=1 7 11 13 -6 6 -8 9 -10 -11 -12 14 -14 -15 -16
leaf_value=-0.095454058582863016 -0.068913734781809594 -0.024849309390414086 0.21249063027121329 0.15739773192032669 0.023351181877259181 -0.060562507044895464 0.027752984745181331 0.096676690461082238 0.12769900237480586 0.15539112098001501 0.1049056091934517 0.085762274742736538 -0.058958499887437302 0.10333307952851711 0.1546073353020618
leaf_weight=1286.0951023027301 221.17136390507221 50.591788858175278 5.2003098875284222 87.320874989032745 1354.8606730401516 218.21086129546165 151.38745015859604 669.59384833276272 9.4681059867143613 119.29749523103237 18.620662808418274 6.6735824197530738 10.838825345039366 13.047173142433165 53.638782739639282
leaf_count=11032 1175 215 21 377 6799 1827 862 2712 50 518 77 27 72 53 231
internal_value=0 0.0455538 -0.0696157 0.0187832 0.0104032 -0.0784115 -0.0243885 0.0978531 -0.0938232 0.105556 0.0100595 0.122215 0.0290525 0.15037 0.14699
internal_weight=0 2534.5 1741.51 1676.4 1576.03 1665.16 369.598 858.104 1295.56 788.891 69.2125 76.3515 16.0391 100.368 60.3124
internal_count=26048 11926 14122 8404 7974 13771 2689 3522 11082 3230 292 351 93 430 258
is_linear=0
shrinkage=0.1


Tree=8
num_leaves=16
num_cat=0
split_feature=33 2 3 2 0 3 4 0 4 0 5 3 3 0 0
split_gain=1155.02 295.746 252.249 135.526 119.988 95.2142 87.174 78.1846 67.8751 47.4943 32.6317 15.5543 17.2666 2.24926 2.0224
threshold=1.0000000180025095e-35 9.5000000000000018 4668.5000000000009 12.500000000000002 35.500000000000007 5036.5000000000009 1789.0000000000002 31.500000000000004 1789.0000000000002 26.500000000000004 41.500000000000007 7792.0000000000009 4826.0000000000009 60.500000000000007 25.500000000000004
decision_type=2 2 2 2 2 2 2 2 2 2 2 2 2 2 2
left_child=2 5 3 10 9 6 -2 -5 -6 -3 -1 12 -4 -7 -13
right_child=1 4 11 7 8 13 -8 -9 -10 -11 -12 14 -14 -15 -16
leaf_value=-0.10018547440461877 -0.015024843044926484 -0.054033320889515173 0.19121647179039358 -0.08076151377705526 0.07829903852275312 0.14882435505750805 0.14179704184155681 0.010438419329419128 0.17084182315256435 0.037554011194692954 -0.057518005133168362 0.079896564346993534 -0.022869106475151953 0.084858628612733966 0.14741288805428743
leaf_weight=953.19010278582573 898.61689847707748 67.040837630629539 5.1999468654394176 152.6331420391798 1036.4775311499834 38.797266960144043 36.902140438556671 244.70593962073326 85.816829100251198 364.25911526381969 220.75766027718782 4.8703374713659278 13.674057960510252 6.4047565311193457 49.817831620573997
leaf_count=9118 4855 328 21 1184 4422 176 164 1533 352 1603 1936 21 85 26 224
internal_value=0 0.0410059 -0.0666027 -0.075076 0.0681473 -0.00198985 -0.0088389 -0.024595 0.0853754 0.0233178 -0.092162 0.114386 0.0361133 0.139761 0.1414
internal_weight=0 2534.32 1644.85 1571.29 1553.59 980.721 935.519 397.339 1122.29 431.3 1173.95 73.5622 18.874 45.202 54.6882
internal_count=26048 11926 14122 13771 6705 5221 5019 2717 4774 1931 11054 351 106 202 245
is_linear=0
shrinkage=0.1


Tree=9
num_leaves=15
num_cat=0
split_feature=33 2 3 42 3 5 0 3 4 2 0 5 26 0
split_gain=974.463 254.096 217.515 148.013 134.278 132.897 67.5592 52.9954 50.449 46.4752 28.824 3.03156 0.400024 0.0876226
threshold=1.0000000180025095e-35 12.500000000000002 7073.5000000000009 1.0000000180025095e-35 5036.5000000000009 43.500000000000007 27.500000000000004 5036.5000000000009 1834.5000000000002 14.500000000000002 29.500000000000004 35.500000000000007 1.0000000180025095e-35 62.500000000000007
decision_type=2 2 2 2 2 2 2 2 2 2 2 2 2 2
left_child=2 3 5 4 -2 9 -7 8 -3 -1 -5 -4 -13 -9
right_child=1 7 11 10 -6 6 -8 13 -10 -11 -12 12 -14 -15
leaf_value=-0.089858823454232351 -0.003274375177186024 0.062646345414488838 0.066987805844936188 -0.037220189330418957 0.1350131971151157 -0.099720011653784343 0.0052183666324485374 0.14499604096348059 0.14935497476691093 0.087355958567764763 0.10742074846497332 0.14337435838600693 0.11728727667730054 0.13631370831034936
leaf_weight=1126.045351728797 1412.3690576851368 661.91170839965343 6.4942452609539023 14.921309635043142 73.889597937464714 78.544535674154758 280.25019153952599 103.40552063286304 74.67057828605175 14.99569223821163 179.741724640131 41.935969009995461 6.8363096565008155 13.095750778913496
leaf_count=11039 7138 2665 27 79 343 670 2058 484 314 97 844 199 32 59
internal_value=0 0.0368986 -0.0636587 0.0143398 0.00360061 -0.0708379 -0.0177539 0.0813488 0.0714364 -0.0875298 0.0963337 0.131171 0.139718 0.14402
internal_weight=0 2534.01 1555.1 1680.92 1486.26 1499.84 358.795 853.084 736.582 1141.04 194.663 55.2665 48.7723 116.501
internal_count=26048 11926 14122 8404 7481 13864 2728 3522 2979 11136 923 258 231 543
is_linear=0
shrinkage=0.1


Tree=10
num_leaves=16
num_cat=0
split_feature=33 3 3 42 48 2 4 12 4 3 3 0 2 3 0
split_gain=823.238 219.708 189.903 189.51 189.664 130.495 69.7081 41.2047 34.4485 11.4262 14.8607 2.55066 2.21538 2.19606 0.0187171
threshold=1.0000000180025095e-35 5036.5000000000009 4668.5000000000009 1.0000000180025095e-35 1.0000000180025095e-35 12.500000000000002 2218.5000000000005 1.0000000180025095e-35 2218.5000000000005 7792.0000000000009 5036.5000000000009 60.500000000000007 11.500000000000002 30961.500000000004 28.500000000000004
decision_type=2 2 2 2 2 2 2 2 2 2 2 2 2 2 2
left_child=2 3 5 4 -2 8 -7 -5 -1 10 -4 14 -13 -11 -3
right_child=1 11 9 7 -6 6 -8 -9 -10 13 -12 12 -14 -15 -16
leaf_value=-0.088841810845887437 -0.0024062510771441941 0.14443473908391308 0.13443742169571879 0.10158616335968013 0.079385770965855154 -0.023979528907863215 0.30283179997575027 0.0028741771488176929 0.09575611888683401 0.13641614657822407 -0.046946570030054174 0.072827356112997746 0.13135053241548741 0.074074094586935216 0.13869506608105517
leaf_weight=1018.9813165739179 1599.8835919797421 5.8829124122858039 8.2799921929836291 334.05845636129379 344.56541739404202 369.96788806468248 6.643836796283721 48.415765285491943 10.210486888885496 42.752319887280464 9.9387197792530042 11.621288955211641 14.587748080492018 6.5109667032957068 165.96443340182304
leaf_count=11003 7864 28 41 1436 1438 2681 36 215 51 215 65 50 69 30 826
internal_value=0 0.0333505 -0.0607141 0.0247446 0.0120877 -0.0685801 -0.0182142 0.0890906 -0.0870104 0.103153 0.0354883 0.13446 0.105401 0.128177 0.138892
internal_weight=0 2524.98 1473.29 2326.92 1944.45 1405.8 376.612 382.474 1029.19 67.482 18.2187 198.056 26.209 49.2633 171.847
internal_count=26048 11926 14122 10953 9302 13771 2717 1651 11054 351 106 973 119 245 854
is_linear=0
shrinkage=0.1


Tree=11
num_leaves=16
num_cat=0
split_feature=33 3 4 2 2 4 0 3 2 0 3 0 3 2 5
split_gain=695.857 197.03 182.515 166.589 149.819 109.605 82.9634 64.347 49.2045 38.1723 11.1891 2.6726 2.6276 2.11214 0.0134824
threshold=1.0000000180025095e-35 5036.5000000000009 1789.0000000000002 12.500000000000002 8.5000000000000018 2001.5000000000002 27.500000000000004 7792.0000000000009 14.500000000000002 32.500000000000007 7937.0000000000009 60.500000000000007 26532.000000000004 11.500000000000002 31.500000000000004
decision_type=2 2 2 2 2 2 2 2 2 2 2 2 2 2 2
left_child=3 2 4 7 -2 -4 10 9 -8 -1 -5 14 -9 -13 -3
right_child=1 11 5 6 -6 -7 8 12 -10 -11 -12 13 -14 -15 -16
leaf_value=-0.10215482059095082 -0.066281313623041738 0.13919457257383477 0.1817093846037765 -0.0971597141632978 0.023536183318872979 -0.025680418750074291 0.0044421070802626453 0.12736536797407053 0.12377593363025036 -0.06234658533274165 0.13627827537102091 0.066953692399860307 0.039441422916816883 0.12511294273627593 0.13369817423676755
leaf_weight=518.30617515742779 204.89070025086403 4.5938778519630423 107.50190810859203 84.077833950519562 1984.2299519181252 33.400825724005699 284.04102981090546 13.77818074822426 39.337590232491493 450.03081877529621 2.1046994775533667 11.389128759503366 4.5120321065187445 13.823147371411322 156.44424809515476
leaf_count=6048 1307 23 465 816 9038 143 1872 73 219 5062 11 50 21 69 831
internal_value=0 0.0301417 0.0222303 -0.057889 0.0151297 0.132548 -0.0042762 -0.0801443 0.0189585 -0.0836541 -0.0914588 0.129115 0.105675 0.0988407 0.133855
internal_weight=0 2516.27 2330.02 1396.19 2189.12 140.903 409.561 986.627 323.379 968.337 86.1825 186.25 18.2902 25.2123 161.038
internal_count=26048 11926 10953 14122 10345 608 2918 11204 2091 11110 827 973 94 119 854
is_linear=0
shrinkage=0.1


Tree=12
num_leaves=15
num_cat=0
split_feature=0 5 33 2 42 2 3 0 58 3 12 5 3 4
split_gain=604.237 273.477 203.274 97.4194 78.9119 66.9959 57.4739 46.6675 33.0358 29.1306 23.715 9.36071 8.87692 6.6155
threshold=29.500000000000004 41.500000000000007 1.0000000180025095e-35 7.5000000000000009 1.0000000180025095e-35 14.500000000000002 7792.0000000000009 24.500000000000004 1.0000000180025095e-35 7073.5000000000009 1.0000000180025095e-35 29.500000000000004 7073.5000000000009 1894.5000000000002
decision_type=2 2 2 2 2 2 2 2 2 2 2 2 2 2
left_child=7 2 6 -4 5 -3 -2 12 9 -9 -6 -10 13 -1
right_child=1 4 3 -5 10 -7 -8 8 11 -11 -12 -13 -14 -15
leaf_value=-0.10568671162455774 -0.062251107838972836 0.033614138346890476 -0.067271862078210259 0.025216628083812559 0.11367301090016042 0.12735912163233779 0.12950012958138143 -0.067550678841473907 -0.083049011662952421 0.13225338194935471 0.021167015233251082 0.057289140984930133 0.044580781199910796 0.051074010672416209
leaf_weight=382.82485180348158 519.19533762335777 793.7135209441185 125.76007157564163 1206.1714511364698 250.58219999819994 84.334749966859818 16.116495430469513 372.7583424076438 5.6127670034766188 7.4426367431879035 31.158995181322098 31.023894339799881 4.0313017070293418 2.7111474201083174
leaf_count=4397 5698 4376 821 5524 1244 387 86 3098 28 41 158 151 20 19
internal_value=0 0.0192554 -0.00443324 0.0164839 0.0573938 0.0426182 -0.0564781 -0.0781566 -0.0549004 -0.0636394 0.103442 0.0357892 -0.103041 -0.104584
internal_weight=0 3027.03 1867.24 1331.93 1159.79 878.048 535.312 806.405 416.838 380.201 281.741 36.6367 389.567 385.536
internal_count=26048 18294 12129 6345 6165 4763 5784 7754 3318 3139 1402 179 4436 4416
is_linear=0
shrinkage=0.1


Tree=13
num_leaves=14
num_cat=0
split_feature=0 3 33 5 2 3 33 0 4 35 0 1 57
split_gain=519.032 232.529 224.398 130.865 89.4517 31.4464 27.86 17.1006 14.3193 2.36543 1.05428 2.16887 0.336944
threshold=28.500000000000004 7073.5000000000009 1.0000000180025095e-35 34.500000000000007 12.500000000000002 5036.5000000000009 1.0000000180025095e-35 24.500000000000004 2218.5000000000005 1.0000000180025095e-35 60.500000000000007 243912.50000000003 1.0000000180025095e-35
decision_type=2 2 2 2 2 2 2 2 2 2 2 2 2
left_child=5 2 4 -4 -2 6 8 -8 -1 -7 12 -12 -3
right_child=1 10 3 -5 -6 9 7 -9 -10 -11 11 -13 -14
leaf_value=-0.099389908007215116 -0.062084186614363705 0.12770747908924152 -0.050392924933602437 0.033948729105899786 0.008434755226587716 0.12721914953382582 -0.099316642102773287 -0.036623026365219025 0.16996131568214598 0.037832847281392912 0.1177022114528835 0.035850984540695484 0.10646335328255913
leaf_weight=442.06125499308109 500.70027565956116 156.9185183942318 203.38025987148285 1927.3192698657513 280.73051819205284 5.644257150590418 60.614828929305077 154.1570601016283 1.9825692623853672 6.2263898104429245 19.136910155415539 3.896443396806716 7.8388204127550116
leaf_count=5854 6156 918 963 8924 1834 32 359 801 11 37 99 20 40
internal_value=0 0.0160423 0.00908731 0.0258981 -0.0367501 -0.0809791 -0.0838857 -0.054317 -0.0981873 0.0803343 0.123895 0.103856 0.126697
internal_weight=0 3099.92 2912.13 2130.7 781.431 670.686 658.816 214.772 444.044 11.8706 187.791 23.0334 164.757
internal_count=26048 18954 17877 9887 7990 7094 7025 1160 5865 69 1077 119 958
is_linear=0
shrinkage=0.1


Tree=14
num_leaves=16
num_cat=0
split_feature=0 5 33 3 43 3 33 48 0 3 2 4 52 1 3
split_gain=447.392 205.632 145.883 83.7818 72.6047 48.173 46.9836 45.6489 20.743 20.0119 18.0364 15.0538 8.26468 3.36075 1.95319
threshold=29.500000000000004 40.500000000000007 1.0000000180025095e-35 5036.5000000000009 1.0000000180025095e-35 7073.5000000000009 1.0000000180025095e-35 1.0000000180025095e-35 24.500000000000004 7937.0000000000009 9.5000000000000018 2218.5000000000005 1.0000000180025095e-35 188434.00000000003 14214.000000000002
decision_type=2 2 2 2 2 2 2 2 2 2 2 2 2 2 2
left_child=6 2 7 -4 5 -3 9 -2 12 11 -10 -1 -8 -6 -11
right_child=1 4 3 -5 13 -7 8 -9 10 14 -12 -13 -14 -15 -16
leaf_value=-0.095817455625342565 -0.065694176267415944 0.048138157570351704 0.0060596432888132736 0.11616577512171931 -0.04574201789419171 0.12350509121377658 -0.10160020177469636 0.014598279579253257 -0.059312051551557048 0.12717394486092526 -0.00010607168662610846 0.15728949977358064 0.056375226861454492 -0.099545719812167324 0.02144502129496673
leaf_weight=439.54610311985016 405.2210313603282 1012.2534637078643 1258.2704872041941 73.123913645744324 41.269093252718449 92.564216315746307 54.52854685485363 85.800479419529438 87.636015109717846 3.6097276955842963 124.6266271173954 2.3624611794948569 3.5258006155490866 16.153661601245403 3.3864279985427856
leaf_count=6233 5046 5293 5898 435 223 582 340 725 524 22 582 12 23 92 18
internal_value=0 0.0158864 -0.00507511 0.012107 0.0487545 0.0544526 -0.0719741 -0.051664 -0.0390373 -0.0918077 -0.0245502 -0.0944643 -0.0920059 -0.0608776 0.0759968
internal_weight=0 2984.66 1822.42 1331.39 1162.24 1104.82 719.222 491.022 270.317 448.905 212.263 441.909 58.0543 57.4228 6.99616
internal_count=26048 18294 12104 6333 6190 5875 7754 5771 1469 6285 1106 6245 363 315 40
is_linear=0
shrinkage=0.1


Tree=15
num_leaves=15
num_cat=0
split_feature=0 2 3 4 33 5 35 3 5 3 4 3 64 0
split_gain=387.279 196.814 107.828 108.342 100.283 65.2775 32.9838 20.5092 17.6349 11.4145 11.0361 10.7205 7.56468 1.17826
threshold=28.500000000000004 9.5000000000000018 7073.5000000000009 1748.0000000000002 1.0000000180025095e-35 35.500000000000007 1.0000000180025095e-35 7937.0000000000009 41.500000000000007 7937.0000000000009 2218.5000000000005 5036.5000000000009 1.0000000180025095e-35 62.500000000000007
decision_type=2 2 2 2 2 2 2 2 2 2 2 2 2 2
left_child=6 4 3 -3 7 -6 8 -2 11 10 -8 -1 -10 -4
right_child=1 2 13 -5 5 -7 9 -9 12 -11 -12 -13 -14 -15
leaf_value=-0.068958491345792933 -0.074104603010524836 0.020234395168948451 0.122811467157227 0.12383768675400136 -0.073492488548922791 0.0081737611168531659 -0.097903656483494375 0.1114135189788172 -0.019984325473665784 0.054773007089221927 0.16212072299242791 0.11936393190159361 0.069698661874892529 0.091313430711922619
leaf_weight=157.70078898593783 282.44058709591627 1643.4868428260088 120.69962354004383 107.54131308197975 112.19296000897884 767.02542757987976 346.90350459516048 6.0874609202146521 67.119253814220428 5.0483192205429068 1.6399701386690129 3.0818913280963889 10.937963686883448 13.172181770205496
leaf_count=1147 3796 9109 803 521 617 3993 5416 37 394 29 8 19 81 78
internal_value=0 0.0132249 0.0332106 0.0265973 -0.0190348 -0.00224729 -0.0751254 -0.0701905 -0.0464157 -0.0945179 -0.0966802 -0.0653487 -0.00741727 0.119712
internal_weight=0 3052.65 1884.9 1751.03 1167.75 879.218 592.432 288.528 238.84 353.592 348.543 160.783 78.0572 133.872
internal_count=26048 18954 10511 9630 8443 4610 7094 3833 1641 5453 5424 1166 475 881
is_linear=0
shrinkage=0.1


Tree=16
num_leaves=16
num_cat=0
split_feature=0 5 33 46 42 2 3 58 5 3 3 4 42 5 0
split_gain=334.273 150.617 130.271 115.496 83.519 55.3954 40.9408 39.8499 32.29 30.3329 24.6624 13.5684 8.62663 5.22458 3.21289
threshold=36.500000000000007 34.500000000000007 1.0000000180025095e-35 1.0000000180025095e-35 1.0000000180025095e-35 12.500000000000002 7937.0000000000009 1.0000000180025095e-35 41.500000000000007 5036.5000000000009 4243.5000000000009 1834.5000000000002 1.0000000180025095e-35 55.500000000000007 24.500000000000004
decision_type=2 2 2 2 2 2 2 2 2 2 2 2 2 2 2
left_child=2 7 6 4 -3 9 8 10 -1 -4 -2 -7 -9 -5 -8
right_child=1 3 5 13 -6 11 14 12 -10 -11 -12 -13 -14 -15 -16
leaf_value=-0.091767986610063204 -0.076236310717904099 0.027291107970351752 -0.033106632021656507 -0.08616713244335672 0.08040777474965824 0.022700769051161852 0.0043916859826162264 0.025152226703812699 -0.039042305194814025 0.12269457642100789 0.086017602614550548 0.12265255104455236 0.17213384215409241 -0.0051614516478545036 0.12154873343640052
leaf_weight=440.67714047431946 195.20773516595364 1492.226705186069 538.33252917230129 81.085739552974701 369.27759095281363 214.44613581895828 2.9860194176435462 33.977360516786575 157.72259917110205 12.793014869093893 9.8401684388518316 14.499802112579344 4.5249301940202704 8.8289023488759977 10.832377851009367
leaf_count=7055 1523 8900 2849 679 1976 911 16 166 1611 86 53 71 21 55 76
internal_value=0 0.0232271 -0.039413 0.0324814 0.0378282 -0.0123145 -0.0739412 -0.0509217 -0.0778709 -0.0294901 -0.0684498 0.029031 0.042426 -0.078213 0.0962323
internal_weight=0 2194.97 1392.29 1951.42 1861.5 780.071 612.218 243.55 598.4 551.126 205.048 228.946 38.5023 89.9146 13.8184
internal_count=26048 13373 12675 11610 10876 3917 8758 1763 8666 2935 1576 982 187 734 92
is_linear=0
shrinkage=0.1


Tree=17
num_leaves=15
num_cat=0
split_feature=0 3 4 42 4 0 33 3 5 4 3 0 1 57
split_gain=298.916 169.917 149.217 126.655 55.5025 22.8236 13.9864 9.69096 7.62583 6.24185 1.95869 1.50953 2.38523 0.436067
threshold=27.500000000000004 7073.5000000000009 1748.0000000000002 1.0000000180025095e-35 1978.5000000000002 23.500000000000004 1.0000000180025095e-35 7937.0000000000009 41.500000000000007 2218.5000000000005 7565.5000000000009 60.500000000000007 243912.50000000003 1.0000000180025095e-35
decision_type=2 2 2 2 2 2 2 2 2 2 2 2 2 2
left_child=5 2 3 -2 -4 9 7 -7 -8 10 -1 13 -13 -3
right_child=1 11 4 -5 -6 6 8 -9 -10 -11 -12 12 -14 -15
leaf_value=-0.1028399209968512 -0.0098007647346449664 0.11854765491500759 0.14513857527372495 0.048383135656325592 0.0164805530127509 -0.084662757699927024 -0.050810769344292073 0.12253644767000969 0.0015249620824698861 0.091593059391928688 -0.015393269504428517 0.10343535613393912 0.011035396810525405 0.09268188041930317
leaf_weight=214.16104577854276 2341.384083352983 125.08848202973604 99.616126380860806 445.27337426319718 50.542966540902853 111.04797756671906 75.063620887696743 2.3041447997093192 44.256074644625187 1.6819575428962696 2.5924154222011557 16.037137515842918 3.3831011801958075 6.8761057481169692
leaf_count=3772 15427 932 497 2378 251 1902 446 16 246 8 14 99 20 40
internal_value=0 0.0100544 0.00472876 -0.000503698 0.101833 -0.0770903 -0.0552961 -0.080451 -0.0313993 -0.100305 -0.101794 0.113369 0.0873388 0.1172
internal_weight=0 3088.2 2936.82 2786.66 150.159 451.107 232.672 113.352 119.32 218.435 216.753 151.385 19.4202 131.965
internal_count=26048 19644 18553 17805 748 6404 2610 1918 692 3794 3786 1091 119 972
is_linear=0
shrinkage=0.1


Tree=18
num_leaves=15
num_cat=0
split_feature=33 3 2 4 2 4 4 3 0 5 3 0 26 3
split_gain=273.599 116.214 107.42 105.164 93.1862 86.5462 44.3693 42.5077 30.5928 23.5942 5.66482 3.94375 2.47668 0.0502026
threshold=1.0000000180025095e-35 5036.5000000000009 10.500000000000002 1789.0000000000002 7.5000000000000009 2001.5000000000002 2429.5000000000005 7073.5000000000009 33.500000000000007 45.500000000000007 37702.500000000007 60.500000000000007 1.0000000180025095e-35 7073.5000000000009
decision_type=2 2 2 2 2 2 2 2 2 2 2 2 2 2
left_child=2 3 8 4 -2 -5 7 -4 10 -10 -1 13 -13 -3
right_child=1 11 6 5 -6 -7 -8 -9 9 -11 -12 12 -14 -15
leaf_value=-0.093715890604938484 -0.062897197299817215 0.12393213072343041 -0.016854270534589936 0.14997375794962264 0.013313956418920792 -0.040187651210111336 0.26276586903212457 0.12136345832557738 -0.062447104693672539 0.0049006393290449632 0.13340857138047821 0.085100205012941299 -0.0098980493167941316 0.11709394494333043
leaf_weight=302.62180157378316 174.39507629722357 12.089879393577574 409.57659986615181 93.497338697314262 2005.1229592785239 32.167553782463074 6.0763030946254721 23.528720125555992 250.07647692039609 65.68090445548296 1.1021415144205082 16.452278420329097 3.293758660554885 95.87442485243082
leaf_count=5827 1215 78 3769 465 9130 143 26 179 3667 648 6 103 16 776
internal_value=0 0.0174889 -0.0434124 0.0123446 0.00721589 0.101296 -0.0055807 -0.00934551 -0.0702331 -0.0484381 -0.0928917 0.110344 0.0692539 0.11786
internal_weight=0 2432.89 1058.66 2305.18 2179.52 125.665 439.182 433.105 619.481 315.757 303.724 127.71 19.746 107.964
internal_count=26048 11926 14122 10953 10345 608 3974 3948 10148 4315 5833 973 119 854
is_linear=0
shrinkage=0.1


Tree=19
num_leaves=15
num_cat=0
split_feature=0 2 33 3 5 2 0 5 58 5 4 0 3 57
split_gain=239.509 139.905 97.021 59.2693 54.3518 52.6313 22.1528 20.6853 13.1993 10.4483 5.57727 4.28945 1.75856 0.0900267
threshold=27.500000000000004 10.500000000000002 1.0000000180025095e-35 7073.5000000000009 35.500000000000007 14.500000000000002 23.500000000000004 41.500000000000007 1.0000000180025095e-35 43.500000000000007 2218.5000000000005 24.500000000000004 7565.5000000000009 1.0000000180025095e-35
decision_type=2 2 2 2 2 2 2 2 2 2 2 2 2 2
left_child=6 2 7 5 -4 -3 10 -2 9 -8 12 -10 -1 -5
right_child=1 3 4 13 -6 -7 8 -9 11 -11 -12 -13 -14 -15
leaf_value=-0.10106579409223615 -0.068752437905239563 0.02057121619749562 -0.052829448999110455 0.11424807981164241 0.010167205870213636 0.086498735685538564 -0.075822499530673201 -0.018472349679391483 -0.064745011781050452 -0.026419434349477841 0.081135829753928745 0.043418191637926734 -0.017213528755603086 0.12912905500203661
leaf_weight=183.57675266638398 273.42152255401015 1072.0655531957746 154.74170020222664 79.462835781276226 1191.511032089591 136.50955206155777 131.55720901116729 116.7635583281517 4.6141906864941147 63.459210880100727 1.716992288827895 17.849963486194611 2.5356191992759696 4.2846618443727484
leaf_count=3772 4532 5733 846 698 5927 627 1898 1251 30 591 8 91 14 30
internal_value=0 0.00874202 -0.0097993 0.0336552 0.00292621 0.0280178 -0.0731118 -0.053706 -0.0513852 -0.0597465 -0.0982683 0.0212012 -0.0999234 0.115009
internal_weight=0 3028.76 1736.44 1292.32 1346.25 1208.58 405.31 390.185 217.481 195.016 187.829 22.4642 186.112 83.7475
internal_count=26048 19644 12556 7088 6773 6360 6404 5783 2610 2489 3794 121 3786 728
is_linear=0
shrinkage=0.1


Tree=20
num_leaves=16
num_cat=0
split_feature=0 5 46 33 43 2 5 58 3 2 3 2 105 42 5
split_gain=218.109 108.02 86.2581 83.9945 70.1393 36.246 35.0734 32.1576 21.5165 20.1569 16.3774 15.7854 11.4274 6.4731 4.38102
threshold=36.500000000000007 34.500000000000007 1.0000000180025095e-35 1.0000000180025095e-35 1.0000000180025095e-35 12.500000000000002 49.500000000000007 1.0000000180025095e-35 5036.5000000000009 14.500000000000002 7937.0000000000009 10.500000000000002 1.0000000180025095e-35 1.0000000180025095e-35 55.500000000000007
decision_type=2 2 2 2 2 2 2 2 2 2 2 2 2 2 2
left_child=3 7 4 6 -3 8 10 9 -5 -2 -1 -8 -7 -9 -4
right_child=1 2 14 5 -6 12 11 13 -10 -11 -12 -13 -14 -15 -16
leaf_value=-0.0819416162186105 -0.072127994078130031 0.034600111902155707 -0.081202727377507222 -0.029957478163962131 -0.070959148496889418 -0.034099714386671622 -0.057529392881782382 0.022682674401221486 0.11674424763265397 0.057798480791349527 0.069631297117264845 0.023095917143830472 0.0302525052421822 0.1512353786682894 -0.0062271078469297112
leaf_weight=390.89584440737963 176.95232103765011 1761.622300952673 74.39055110886693 523.45154862105846 65.278637241572142 32.283314809203148 43.502277456223965 33.157515358179808 10.192385151982306 12.804742470383642 7.2609911188483229 54.96650380641222 189.99087319523096 4.4416702985763541 8.7055906206369382
leaf_count=7626 1518 10495 679 2849 381 139 644 166 86 58 56 432 843 21 55
internal_value=0 0.0185398 0.026296 -0.034013 0.0308283 -0.0130233 -0.0659616 -0.0466197 -0.0271555 -0.0633606 -0.0791775 -0.0125233 0.0209059 0.0378689 -0.0733479
internal_weight=0 2137.35 1910 1252.54 1826.9 755.918 496.626 227.356 533.644 189.757 398.157 98.4688 222.274 37.5992 83.0961
internal_count=26048 13373 11610 12675 10876 3917 8758 1763 2935 1576 7682 1076 982 187 734
is_linear=0
shrinkage=0.1


Tree=21
num_leaves=15
num_cat=0
split_feature=0 3 42 48 12 5 4 35 3 0 52 0 1 57
split_gain=186.539 126.668 105.234 111.49 24.946 15.5234 8.18126 7.77797 4.83728 4.62668 3.47379 1.74536 2.61231 0.528946
threshold=26.500000000000004 7073.5000000000009 1.0000000180025095e-35 1.0000000180025095e-35 1.0000000180025095e-35 43.500000000000007 1881.5000000000002 1.0000000180025095e-35 10041.000000000002 23.500000000000004 1.0000000180025095e-35 60.500000000000007 243912.50000000003 1.0000000180025095e-35
decision_type=2 2 2 2 2 2 2 2 2 2 2 2 2 2
left_child=5 2 3 -2 -4 6 9 10 -9 -1 -7 13 -13 -3
right_child=1 11 4 -5 -6 7 -8 8 -10 -11 -12 12 -14 -15
leaf_value=-0.10086498306275637 -0.01650426274177939 0.11309570907010723 0.053540648254795924 0.037324894282185959 -0.016468869878932531 -0.0089748772254296724 0.05341262522579715 -0.078053945612158462 0.12518777895872962 -0.072532558223243837 0.10487141861213488 0.095026914105812932 -0.0076953124682327166 0.082819029064725574
leaf_weight=140.46522119268775 1965.2989872470498 98.825499966740608 424.49243554100394 478.4373307749629 57.830211590975523 31.716200955212116 4.0893743932247153 27.842328611761335 1.2224666029214848 97.74449048936367 2.9275847524404517 13.858083561062815 3.0141576901078215 6.1280656829476348
leaf_count=3435 13981 939 2323 2608 294 223 28 521 8 1508 20 99 20 41
internal_value=0 0.00661934 0.00245963 -0.00596553 0.0451465 -0.0752826 -0.0868318 -0.0313583 -0.0695056 -0.0892394 0.000645742 0.106529 0.076676 0.111328
internal_weight=0 3047.88 2926.06 2443.74 482.323 306.008 242.299 63.7086 29.0648 238.21 34.6438 121.826 16.8722 104.954
internal_count=26048 20305 19206 16589 2617 5743 4971 772 529 4943 243 1099 119 980
is_linear=0
shrinkage=0.1


Tree=22
num_leaves=15
num_cat=0
split_feature=33 3 4 4 5 2 0 4 3 64 3 0 3 3
split_gain=174.307 87.6113 86.0637 76.0182 74.7429 70.1652 36.7414 29.4907 25.7018 21.3136 7.0899 4.28875 2.26991 0.0570297
threshold=1.0000000180025095e-35 5036.5000000000009 1789.0000000000002 2001.5000000000002 43.500000000000007 8.5000000000000018 34.500000000000007 2429.5000000000005 4668.5000000000009 1.0000000180025095e-35 7937.0000000000009 60.500000000000007 6618.5000000000009 7073.5000000000009
decision_type=2 2 2 2 2 2 2 2 2 2 2 2 2 2
left_child=4 2 5 -4 6 -2 10 9 -8 -6 -1 13 -13 -3
right_child=1 11 3 -5 7 -7 8 -9 -10 -11 -12 12 -14 -15
leaf_value=-0.085901047153953691 -0.054884327842870576 0.120127700749179 0.1412642224379797 -0.039840111159672259 0.020457286118645786 0.010449118932926542 -0.041401512497139747 0.23261263878111846 0.085792596598674165 -0.032786638653695757 0.041086660946246738 0.13488915561387491 0.042108550718986386 0.11233331101300732
leaf_weight=277.9778506308794 179.31205041706562 10.744927421212195 86.413209192454815 31.671994060277939 181.93316826596856 1974.0422398075461 327.81108916178346 5.473515421152114 16.695678152143955 128.13188628479838 4.4672503098845473 3.22849974036217 14.390252426266668 74.290750332176685
leaf_count=6643 1307 78 465 143 1761 9038 4452 23 127 1084 32 18 101 776
internal_value=0 0.0136508 0.009567 0.0926897 -0.0371786 0.00500873 -0.0571568 0.0025165 -0.0352374 -0.00154534 -0.0838926 0.104014 0.0591099 0.113318
internal_weight=0 2374.09 2271.44 118.085 942.49 2153.35 626.952 315.539 344.507 310.065 282.445 102.654 17.6188 85.0357
internal_count=26048 11926 10953 608 14122 10345 11254 2868 4579 2845 6675 973 119 854
is_linear=0
shrinkage=0.1


Tree=23
num_leaves=15
num_cat=0
split_feature=0 5 0 46 43 5 58 58 2 2 2 4 5 5
split_gain=156.934 84.5571 66.8691 66.5536 55.0525 37.3871 32.3876 25.8087 18.3635 16.3018 5.2484 5.06613 5.03722 3.9054
threshold=36.500000000000007 34.500000000000007 24.500000000000004 1.0000000180025095e-35 1.0000000180025095e-35 41.500000000000007 1.0000000180025095e-35 1.0000000180025095e-35 11.500000000000002 14.500000000000002 10.500000000000002 1894.5000000000002 43.500000000000007 55.500000000000007
decision_type=2 2 2 2 2 2 2 2 2 2 2 2 2 2
left_child=2 7 11 4 -3 6 -4 9 -7 -2 -9 12 -1 -5
right_child=1 3 5 13 -6 8 -8 10 -10 -11 -12 -13 -14 -15
leaf_value=-0.095929477062350513 -0.067478829169433124 0.029623592637097497 -0.045393474299339355 -0.075939612092814843 -0.065771409281151369 -0.01628375383000482 0.02521408599036077 -0.00039724152264848433 0.026161230482608367 0.04963664695856812 0.075402789722893146 0.054357360204034193 -0.051321540982826021 -0.0042290201846280568
leaf_weight=146.61420720629394 167.21185810863972 1743.3044854104519 504.08360343053937 69.373333368450403 62.67068187519908 222.50392223894596 74.575458627194166 21.175046946853399 188.09888742119074 12.794682584702967 16.064585335552692 2.5274342484772196 30.597224049270153 8.528099447488783
leaf_count=3938 1518 10495 5197 679 381 1616 376 111 1050 58 76 19 479 55
internal_value=0 0.0155971 -0.0301125 0.0224095 0.0263132 -0.0199179 -0.0362938 -0.0434773 0.00316047 -0.0591544 0.0323017 -0.0862225 -0.0882275 -0.0680892
internal_weight=0 2101.12 1169 1883.88 1805.98 989.262 578.659 217.246 410.603 180.007 37.2396 179.739 177.211 77.9014
internal_count=26048 13373 12675 11610 10876 8239 5573 1763 2666 1576 187 4436 4417 734
is_linear=0
shrinkage=0.1


Tree=24
num_leaves=16
num_cat=0
split_feature=33 3 4 4 2 2 64 56 0 64 3 49 0 2 3
split_gain=136.656 78.2724 72.1591 66.2596 65.1973 57.5892 34.8114 25.8317 23.0586 20.4755 17.0568 5.00939 4.41809 2.18842 0.0395232
threshold=1.0000000180025095e-35 5036.5000000000009 1789.0000000000002 2001.5000000000002 10.500000000000002 7.5000000000000009 1.0000000180025095e-35 1.0000000180025095e-35 33.500000000000007 1.0000000180025095e-35 7364.0000000000009 1.0000000180025095e-35 60.500000000000007 11.500000000000002 7073.5000000000009
decision_type=2 2 2 2 2 2 2 2 2 2 2 2 2 2 2
left_child=4 2 5 -4 8 -2 7 -6 11 -10 -8 -1 14 -14 -3
right_child=1 12 3 -5 6 -7 10 -9 9 -11 -12 -13 13 -15 -16
leaf_value=-0.086611086023748937 -0.054127097028617621 0.1176685487103057 0.13405694549125433 -0.036801177943372863 0.03913397529853424 0.0087551900663998088 -0.037673139863231182 -0.072516355483746686 -0.0097993382113996594 -0.06437679998161773 0.11472595278279679 0.029122715873412544 0.021103214323441078 0.093040426643438229 0.11087144045315885
leaf_weight=200.19192248769104 157.17765756696463 9.8086585402488691 81.128223858773708 31.514318570494652 172.67206358909607 1984.2782171592116 210.06807841546834 23.548054747283459 123.40910821035504 155.17178703099489 7.6100660413503638 3.8111401684582225 8.886948227882387 8.0680447891354543 66.914834544062614
leaf_count=5742 1215 78 465 143 1479 9130 2068 351 1778 2537 76 91 50 69 776
internal_value=0 0.0119656 0.0082433 0.0862555 -0.0339301 0.00413978 -0.00481067 0.025735 -0.0589051 -0.0401994 -0.0323452 -0.084449 0.101531 0.0553346 0.11174
internal_weight=0 2347.78 2254.1 112.643 896.482 2141.46 413.898 196.22 482.584 278.581 217.678 204.003 93.6785 16.955 76.7235
internal_count=26048 11926 10953 608 14122 10345 3974 1830 10148 4315 2144 5833 973 119 854
is_linear=0
shrinkage=0.1


Tree=25
num_leaves=15
num_cat=0
split_feature=0 5 0 12 48 42 64 5 58 29 5 42 4 3
split_gain=122.608 70.6996 57.2269 43.9682 43.5957 38.6631 37.5002 33.3622 27.715 25.1853 15.9693 11.3357 5.16891 1.85652
threshold=36.500000000000007 43.500000000000007 23.500000000000004 1.0000000180025095e-35 1.0000000180025095e-35 1.0000000180025095e-35 1.0000000180025095e-35 48.500000000000007 1.0000000180025095e-35 1.0000000180025095e-35 28.500000000000004 1.0000000180025095e-35 2218.5000000000005 7565.5000000000009
decision_type=2 2 2 2 2 2 2 2 2 2 2 2 2 2
left_child=2 4 12 6 5 -2 -3 8 -4 -5 -6 -9 13 -1
right_child=1 3 7 9 10 -7 -8 11 -10 -11 -12 -13 -14 -15
leaf_value=-0.095968250449108186 -0.016655763142537049 0.057882811625667364 -0.038244836812593504 -0.029297301782744735 -0.032099932561207689 0.033958301386309057 -0.0097824900749766269 -0.00074008048796291839 0.022315274800078624 0.14166014558403212 0.053286454626047489 0.048317392503303393 0.080563912009174607 -0.0098764040336236317
leaf_weight=118.52655884250998 919.94508145749569 557.66323011368513 627.99429655820131 116.37575736641884 25.061825562268496 180.54135623201728 96.003106027841568 228.03480772301555 85.906039413064718 9.306404843926428 173.79186376556754 59.363715372979641 1.7173773497343052 2.5588974058628073
leaf_count=3772 6828 2967 6555 614 153 1072 655 1545 441 52 1032 340 8 14
internal_value=0 0.0137171 -0.0272775 0.0375298 -0.000565857 -0.00835222 0.0479449 -0.0193758 -0.0309574 -0.0166384 0.0425251 0.00939301 -0.0917055 -0.0941489
internal_weight=0 2078.69 1124.1 779.348 1299.34 1100.49 653.666 1001.3 713.9 125.682 198.854 287.399 122.803 121.085
internal_count=26048 13373 12675 4288 9085 7900 3622 8881 6996 666 1185 1885 3794 3786
is_linear=0
shrinkage=0.1


Tree=26
num_leaves=13
num_cat=0
split_feature=56 3 2 5 3 3 0 50 48 0 1 57
split_gain=114.029 94.8873 78.2187 69.4701 23.0444 3.16229 2.236 4.09992 2.84905 1.92986 3.11592 0.492792
threshold=1.0000000180025095e-35 7073.5000000000009 13.500000000000002 34.500000000000007 257.50000000000006 4737.0000000000009 42.500000000000007 1.0000000180025095e-35 1.0000000180025095e-35 60.500000000000007 247806.50000000003 1.0000000180025095e-35
decision_type=2 2 2 2 2 2 2 2 2 2 2 2
left_child=1 2 3 -1 -4 6 8 -8 -2 11 -11 -3
right_child=5 9 4 -5 -6 -7 7 -9 -10 10 -12 -13
leaf_value=-0.057063465521100171 -0.095696223799614621 0.10838335502867083 0.049901436631863257 -0.00041693842701560012 -0.076029179908319727 0.015860461981112472 -0.069228152499567361 0.093739967181321993 -0.048816627934529566 0.087971113017860994 -0.033599189508763026 0.07825938794947454
leaf_weight=238.63997038453817 121.71295134536922 77.459325458854437 338.3462990783155 2333.2069349884987 15.183302484452723 3.0636919103562823 12.448112830519673 1.7622695080935962 14.509170634672044 12.301257401704786 2.5443699881434432 5.839922569692134
leaf_count=2575 3611 951 1702 16506 82 24 163 19 253 101 18 43
internal_value=0 0.00363423 0.000389408 -0.00567313 0.044493 -0.084717 -0.0867653 -0.049018 -0.090703 0.100352 0.0671354 0.106271
internal_weight=0 3023.52 2925.38 2571.85 353.53 153.496 150.433 14.2104 136.222 98.1449 14.8456 83.2992
internal_count=26048 21978 20865 19081 1784 4070 4046 182 3864 1113 119 994
is_linear=0
shrinkage=0.1


Tree=27
num_leaves=16
num_cat=0
split_feature=33 3 4 4 4 2 4 64 5 4 0 0 3 4 3
split_gain=101.674 62.6813 60.3207 58.6375 56.6127 50.0102 29.7604 24.9199 20.8066 16.203 11.7584 4.69908 2.3979 0.835961 0.0392252
threshold=1.0000000180025095e-35 5036.5000000000009 1789.0000000000002 2001.5000000000002 1568.5000000000002 10.500000000000002 2218.5000000000005 1.0000000180025095e-35 41.500000000000007 2429.5000000000005 32.500000000000007 60.500000000000007 6618.5000000000009 2450.5000000000005 7073.5000000000009
decision_type=2 2 2 2 2 2 2 2 2 2 2 2 2 2 2
left_child=5 2 4 -4 -2 8 7 -7 10 -10 -1 14 -13 -8 -3
right_child=1 11 3 -5 -6 6 13 -9 9 -11 -12 12 -14 -15 -16
leaf_value=-0.091793612142885367 0.0051019472518392976 0.11572538080841728 0.12827022680251868 -0.034845586081912593 -0.16020846672966432 0.016785074779027753 0.14101431898251604 -0.033358332016615581 -0.02466257088258822 0.25211258782699492 -0.051925215302463162 0.13042826246656414 0.029960986334985701 0.20091309285796616 0.10859896235561661
leaf_weight=123.51338430121541 2100.7074884437025 8.991669833660124 75.388188116252422 31.14260433614254 20.922706842422485 191.21172378584743 4.5715577900409681 205.76226871833205 126.54215835034847 2.1511032134294501 184.4469689540565 2.9161362051963797 12.817364059388636 4.7518054842948914 54.768880765885115
leaf_count=4804 10241 78 465 143 104 1807 21 2126 1738 9 3597 18 101 20 776
internal_value=0 0.0102716 0.00715863 0.0805859 0.00347172 -0.0303087 -0.00505794 -0.0092056 -0.053804 -0.0200363 -0.0679152 0.0975265 0.0485822 0.171543 0.109604
internal_weight=0 2307.66 2228.16 106.531 2121.63 842.951 406.297 396.974 436.654 128.693 307.96 79.4941 15.7335 9.32336 63.7606
internal_count=26048 11926 10953 608 10345 14122 3974 3933 10148 1747 8401 973 119 41 854
is_linear=0
shrinkage=0.1


Tree=28
num_leaves=14
num_cat=0
split_feature=0 46 3 43 0 3 35 5 3 4 3 0 0
split_gain=93.7095 77.1869 63.701 52.4088 21.9782 9.00351 8.67374 4.8005 4.68296 4.55452 3.07052 2.99056 2.09323
threshold=28.500000000000004 1.0000000180025095e-35 7073.5000000000009 1.0000000180025095e-35 23.500000000000004 7073.5000000000009 1.0000000180025095e-35 55.500000000000007 4243.5000000000009 2218.5000000000005 37702.500000000007 44.500000000000007 60.500000000000007
decision_type=2 2 2 2 2 2 2 2 2 2 2 2 2
left_child=4 2 3 -2 9 6 -6 8 -3 10 -1 -9 -4
right_child=1 7 12 -5 5 -7 -8 11 -10 -11 -12 -13 -14
leaf_value=-0.09277033706251242 0.0093107272599246196 -0.075906433692374792 0.10429264836726154 -0.070203888472516018 -0.023107664909258321 0.11558062223459016 -0.064213818599471645 -0.044535588533063442 0.054434936854422467 0.071848132342323498 0.13673140612119247 0.060317584935818139 0.06154737903086787
leaf_weight=99.470220144838095 2468.3232904672623 123.4779015108943 66.730538807809353 85.771890392526984 166.1292316634208 3.993688888847827 74.286378357559443 7.4146663732826692 2.8194269463419905 1.7381668537855137 0.58639885485172172 4.2962310686707497 13.830594062805174
leaf_count=3783 15747 1457 945 583 1282 39 1979 58 21 8 3 25 118
internal_value=0 0.00558334 0.00940203 0.00664046 -0.0495959 -0.0333354 -0.0358091 -0.0673175 -0.0729967 -0.0886374 -0.0914253 -0.00606941 0.0969542
internal_weight=0 2772.66 2634.66 2554.1 346.204 244.409 240.416 138.008 126.297 101.795 100.057 11.7109 80.5611
internal_count=26048 18954 17393 16330 7094 3300 3261 1561 1478 3794 3786 83 1063
is_linear=0
shrinkage=0.1


Tree=29
num_leaves=15
num_cat=0
split_feature=56 2 3 4 5 33 11 0 50 48 10 0 41 3
split_gain=87.0359 70.9855 44.673 43.6379 35.0934 27.7475 12.0138 2.92615 3.15895 2.71946 2.67901 1.9181 1.65302 1.58348
threshold=1.0000000180025095e-35 9.5000000000000018 7073.5000000000009 1881.5000000000002 38.500000000000007 1.0000000180025095e-35 1.0000000180025095e-35 42.500000000000007 1.0000000180025095e-35 1.0000000180025095e-35 1.0000000180025095e-35 62.500000000000007 1.0000000180025095e-35 5036.5000000000009
decision_type=2 2 2 2 2 2 2 2 2 2 2 2 2 2
left_child=1 4 3 -3 6 -6 -1 9 12 13 -11 -4 -9 -2
right_child=7 2 11 -5 5 -7 -8 8 -10 10 -12 -13 -14 -15
leaf_value=-0.066220705817451639 -0.092911116290684936 0.0088992697742041656 0.10573565769006901 0.086683291949589958 -0.046726131134217329 -0.0020036327267784282 0.092266594928072598 -0.069886148639596496 0.082165900953307433 -0.10068927078799567 -0.0083836332704519418 0.053241934632706558 0.043896562691848849 -0.010163696495763923
leaf_weight=149.22978148423135 101.06319886818528 1707.4873657971621 53.4545285589993 75.305431589484215 167.87592638842762 799.07959085702896 4.9412767458707085 10.51180693879723 1.9182534515857703 5.0424060020595762 8.3526324983686209 8.0028644502162916 1.4533339254558093 2.3667819797992697
leaf_count=1990 3611 10765 833 499 3343 4434 36 145 20 87 166 78 22 19
internal_value=0 0.00301136 0.0150746 0.0121849 -0.0168326 -0.00976803 -0.0611411 -0.080369 -0.0369663 -0.085527 -0.043131 0.0989 -0.0560656 -0.0910176
internal_weight=0 2965.38 1844.25 1782.79 1121.13 966.956 154.171 130.708 13.8834 116.825 13.395 61.4574 11.9651 103.43
internal_count=26048 21978 12175 11264 9803 7777 2026 4070 187 3883 253 911 167 3630
is_linear=0
shrinkage=0.1


Tree=30
num_leaves=15
num_cat=0
split_feature=0 0 46 0 2 5 58 11 2 4 0 1 4 3
split_gain=79.8179 52.8259 47.2275 39.2749 37.2433 24.4955 20.3373 14.799 11.674 11.2048 4.42374 4.34083 3.93675 2.6749
threshold=36.500000000000007 61.500000000000007 1.0000000180025095e-35 23.500000000000004 14.500000000000002 41.500000000000007 1.0000000180025095e-35 1.0000000180025095e-35 15.500000000000002 1834.5000000000002 43.500000000000007 102477.50000000001 2218.5000000000005 37702.500000000007
decision_type=2 2 2 2 2 2 2 2 2 2 2 2 2 2
left_child=3 2 4 12 -2 6 -5 8 -3 -7 -4 -9 13 -1
right_child=1 7 10 5 -6 9 -8 11 -10 -11 -12 -13 -14 -15
leaf_value=-0.090572798943534871 0.016857242509679272 -0.04776210444234158 -0.087604307540844639 -0.038450541345277756 0.083840154680332124 -0.0016177739734613392 0.016901288493831795 0.16132057945116496 0.073773086015973516 0.085943524570095964 -0.039469365098826127 0.030440594753513534 0.061277731940259199 0.13197627654756133
leaf_weight=87.224339095875621 1635.4986087828875 193.70583579689264 31.217913780361414 473.98656231164932 87.446245912462473 391.76565800607204 77.188603647053242 3.0961243622005012 8.2395910099148733 15.180639307945965 49.156955536454916 13.960419714450834 1.7738348096609104 0.54344138503074546
leaf_count=3783 10342 1473 328 5673 516 2713 402 20 43 93 570 81 8 3
internal_value=0 0.0111293 0.0167616 -0.0228788 0.0202569 -0.0169598 -0.0306989 -0.0352486 -0.0428033 0.00164859 -0.0581652 0.0541981 -0.0862139 -0.0891948
internal_weight=0 2022.32 1803.32 1047.66 1722.94 958.121 551.175 219.002 201.945 406.946 80.3749 17.0565 89.5416 87.7678
internal_count=26048 13373 11756 12675 10858 8881 6075 1617 1516 2806 898 101 3794 3786
is_linear=0
shrinkage=0.1


Tree=31
num_leaves=13
num_cat=0
split_feature=56 42 48 51 2 12 5 4 3 48 105 0
split_gain=71.0709 65.2534 60.8093 54.0755 21.3064 21.0419 12.206 11.5788 2.8854 2.20352 2.83545 2.83057
threshold=1.0000000180025095e-35 1.0000000180025095e-35 1.0000000180025095e-35 1.0000000180025095e-35 14.500000000000002 1.0000000180025095e-35 48.500000000000007 1534.0000000000002 4737.0000000000009 1.0000000180025095e-35 1.0000000180025095e-35 42.500000000000007
decision_type=2 2 2 2 2 2 2 2 2 2 2 2
left_child=1 2 3 -1 -4 6 -3 -7 9 11 -11 -2
right_child=8 5 4 -5 -6 7 -8 -9 -10 10 -12 -13
leaf_value=-0.015627446467413673 -0.090469887513614511 0.030111432360102594 0.016483407193900058 0.063728321810705243 0.067161865372217411 -0.032645291521840362 0.064577103887675652 0.13712680787422032 0.020734576072098658 0.088659825950819615 -0.057697770150620054 -0.036832980169878377
leaf_weight=1864.6792506482452 88.889777593314648 265.2544755898416 381.81120429746807 90.015765227377415 105.98763668164611 54.702557845041156 167.72901847958565 4.3356555998325339 2.9617223404347888 1.4724987167865027 13.099819369614123 11.063462993130086
leaf_count=15234 3611 1726 2444 651 624 294 982 23 24 19 248 168
internal_value=0 0.00260202 -0.0040908 -0.011973 0.0274947 0.0358265 0.0434627 -0.0201775 -0.0767165 -0.0792367 -0.0429087 -0.084533
internal_weight=0 2934.52 2442.49 1954.7 487.799 492.022 432.983 59.0382 117.487 114.526 14.5723 99.9532
internal_count=26048 21978 18953 15885 3068 3025 2708 317 4070 4046 267 3779
is_linear=0
shrinkage=0.1


Tree=32
num_leaves=16
num_cat=0
split_feature=33 3 3 3 64 56 0 3 42 0 0 3 2 0 3
split_gain=66.8277 46.885 46.3853 43.2834 37.2322 36.9785 21.0972 18.0899 16.5051 4.93925 3.10387 2.51887 2.46983 0.939043 0.0379858
threshold=1.0000000180025095e-35 5036.5000000000009 4462.0000000000009 4243.5000000000009 1.0000000180025095e-35 1.0000000180025095e-35 38.500000000000007 7792.0000000000009 1.0000000180025095e-35 60.500000000000007 56.500000000000007 6618.5000000000009 12.500000000000002 32.500000000000007 7073.5000000000009
decision_type=2 2 2 2 2 2 2 2 2 2 2 2 2 2 2
left_child=4 2 3 -2 5 6 -1 8 -6 14 -7 -11 -4 -9 -3
right_child=1 9 12 -5 7 10 -8 13 -10 11 -12 -13 -14 -15 -16
leaf_value=-0.017128866049068266 0.0057733480164893058 0.11388183573343134 -0.14941446828132124 0.17746769790022737 -0.059958276468471364 -0.080320850519120954 0.033847210380367747 0.035868152810017512 -0.0052103565602203677 0.12810674144695119 0.10850173162310171 0.02142930314220674 -0.23980481601378811 0.11452944985674392 0.10640919070815527
leaf_weight=155.14450125861913 2164.6398028321564 8.1400907561182958 7.9366671890020353 14.783076696097849 318.7585719274357 56.652127204462886 170.31548925302923 1.9712622091174106 66.564908666536212 2.7225886806845656 0.88414011895656486 11.83493487164378 4.8825507462024689 6.5947048403322697 41.40003838762641
leaf_count=2834 10828 78 40 64 6516 2197 1736 19 732 18 12 101 21 76 776
internal_value=0 0.00828722 0.00582236 0.00693795 -0.0257183 -0.00351743 0.00954727 -0.0473053 -0.0505005 0.0925892 -0.0774193 0.0413804 -0.183842 0.0964273 0.107637
internal_weight=0 2256.34 2192.24 2179.42 776.886 382.996 325.46 393.889 385.323 64.0977 57.5363 14.5575 12.8192 8.56597 49.5401
internal_count=26048 11926 10953 10892 14122 6779 4570 7343 7248 973 2209 119 61 95 854
is_linear=0
shrinkage=0.1


Tree=33
num_leaves=16
num_cat=0
split_feature=5 3 0 2 58 2 0 3 2 39 48 1 0 3 31
split_gain=64.7822 51.7392 48.1668 36.9914 30.0446 18.7884 14.7474 10.8082 6.78714 5.64178 5.57816 5.41737 2.09106 2.63349 0.602816
threshold=35.500000000000007 7073.5000000000009 36.500000000000007 5.5000000000000009 1.0000000180025095e-35 9.5000000000000018 42.500000000000007 9000.0000000000018 11.500000000000002 1.0000000180025095e-35 1.0000000180025095e-35 277697.50000000006 60.500000000000007 10543.000000000002 1.0000000180025095e-35
decision_type=2 2 2 2 2 2 2 2 2 2 2 2 2 2 2
left_child=4 2 5 -4 6 -2 10 -8 9 -6 -1 -10 14 -14 -3
right_child=1 12 3 -5 8 -7 7 -9 11 -11 -12 -13 13 -15 -16
leaf_value=-0.08878809370379602 -0.035416252369016653 0.10738810807038585 -0.056796838944201435 0.01584405633925668 -0.026376349675294061 -0.0050039512812573954 -0.038535537052583217 0.12065353434734967 0.078364097038784081 0.055323742944808844 -0.031980033677345109 -0.039784336423082399 0.11833669647403418 0.0085620477268092531 0.075781157674958632
leaf_weight=105.37839305493981 320.39888779819012 45.658671282231808 73.250676622614264 1631.5264110267162 32.983870927244425 555.04997950140387 168.94529361091554 4.3755538128316394 22.518756490200762 11.364394059404729 20.676626022905111 4.6890086606144896 3.5883929543197137 5.5893997587263584 6.9531092457473269
leaf_count=3206 4262 861 656 9688 195 4896 1579 37 114 64 295 21 32 59 83
internal_value=0 0.00509741 0.00293184 0.0127228 -0.0395308 -0.0161343 -0.0534447 -0.0345167 0.0186824 -0.00544042 -0.0794699 0.0580023 0.0955276 0.0514825 0.103211
internal_weight=0 2642.02 2580.23 1704.78 370.932 875.449 299.376 173.321 71.556 44.3483 126.055 27.2078 61.7896 9.17779 52.6118
internal_count=26048 20537 19502 10344 5511 9158 5117 1616 394 259 3501 135 1035 91 944
is_linear=0
shrinkage=0.1


Tree=34
num_leaves=15
num_cat=0
split_feature=5 33 7 2 43 48 0 64 4 60 45 4 26 1
split_gain=59.7562 48.9529 35.5846 31.0519 27.5697 24.329 20.7347 21.1618 17.3256 13.1791 7.61845 5.59992 4.76122 2.23895
threshold=41.500000000000007 1.0000000180025095e-35 1.0000000180025095e-35 5.5000000000000009 1.0000000180025095e-35 1.0000000180025095e-35 31.500000000000004 1.0000000180025095e-35 2218.5000000000005 1.0000000180025095e-35 1.0000000180025095e-35 1409.5000000000002 1.0000000180025095e-35 199225.50000000003
decision_type=2 2 2 2 2 2 2 2 2 2 2 2 2 2
left_child=1 5 3 -3 6 8 10 -8 -1 -7 -2 13 -4 -6
right_child=4 2 12 -5 11 9 7 -9 -10 -11 -12 -13 -14 -15
leaf_value=-0.055712370348211304 -0.0046589556809981201 -0.075810960405556779 0.05582763950558331 -0.0024117286170535911 -0.047946654799758771 -0.0023480733475813031 0.032713518344913449 -0.010743166603129248 0.10750107321043029 0.20295412876796509 -0.096009724104135441 0.073841466659429131 0.11884440481288992 -0.096083293132692593
leaf_weight=345.32484132610261 186.1197481174022 60.441333625465631 41.165585339069366 1242.4854260180146 39.36848615296185 90.168410258367658 803.94784859195352 130.20558155700564 6.6287793368101111 3.2391114290803662 9.6003066524863225 3.3379780426621428 16.916664376854897 12.805597130209206
leaf_count=9926 1722 534 201 6513 260 1090 4457 946 37 49 106 17 85 105
internal_value=0 -0.0118196 -0.00240265 -0.00581664 0.0170753 -0.0405976 0.0204556 0.0266564 -0.0526384 0.00477123 -0.00913982 -0.0517277 0.0741815 -0.0597613
internal_weight=0 1806.37 1361.01 1302.93 1185.39 445.361 1129.87 934.153 351.954 93.4075 195.72 55.5121 58.0822 52.1741
internal_count=26048 18435 7333 7047 7613 11102 7231 5403 9963 1139 1828 382 286 365
is_linear=0
shrinkage=0.1


Tree=35
num_leaves=13
num_cat=0
split_feature=3 4 5 4 4 4 54 58 0 0 1 57
split_gain=52.4294 52.8649 53.9469 53.0086 29.5422 67.9493 27.1476 23.2914 7.02472 2.44069 3.78977 0.78509
threshold=7073.5000000000009 1748.0000000000002 34.500000000000007 1568.5000000000002 1978.5000000000002 2218.5000000000005 1.0000000180025095e-35 1.0000000180025095e-35 20.500000000000004 60.500000000000007 257319.00000000003 1.0000000180025095e-35
decision_type=2 2 2 2 2 2 2 2 2 2 2 2
left_child=1 2 7 -4 6 -6 -3 -1 -2 11 -11 -10
right_child=8 4 3 -5 5 -7 -8 -9 9 10 -12 -13
leaf_value=-0.064132309611006397 -0.16289064768224132 0.11966461976521935 0.0006923779287274362 -0.14476634568320132 -0.15307234398111702 0.088024995393811811 -0.12967949401027795 0.01079646019644156 0.10518675232154587 0.076929769457401723 -0.071510304659886684 0.062205779596792091
leaf_weight=204.24466836545616 1.0992410853505123 66.842567449435592 2501.5896896896884 25.306837884709239 17.938407868146896 33.557420454919338 4.671674449928104 52.059914429672062 47.992103271186352 10.148944247514008 2.0708789601922026 4.6626732796430579
leaf_count=4087 5 481 19548 204 116 164 46 272 963 103 16 43
internal_value=0 -0.00236296 -0.00519839 -0.000764389 0.0617908 0.0040395 0.103376 -0.048913 0.0877892 0.0920367 0.0517738 0.101381
internal_weight=0 2906.21 2783.2 2526.9 123.01 51.4958 71.5142 256.305 65.9738 64.8746 12.2198 52.6548
internal_count=26048 24918 24111 19752 807 280 527 4359 1130 1125 119 1006
is_linear=0
shrinkage=0.1


Tree=36
num_leaves=15
num_cat=0
split_feature=0 46 3 43 0 5 3 5 35 3 1 20 0 5
split_gain=50.1061 45.1577 38.9122 38.6527 10.4678 7.45754 5.2527 4.2339 4.18913 3.2042 3.11291 2.80215 2.37784 2.37706
threshold=26.500000000000004 1.0000000180025095e-35 7073.5000000000009 1.0000000180025095e-35 21.500000000000004 43.500000000000007 5036.5000000000009 55.500000000000007 1.0000000180025095e-35 4243.5000000000009 548071.00000000012 1.0000000180025095e-35 60.500000000000007 69.000000000000014
decision_type=2 2 2 2 2 2 2 2 2 2 2 2 2 2
left_child=4 2 3 -2 10 6 -6 9 -7 -3 11 -1 -4 -9
right_child=1 7 12 -5 5 8 -8 13 -10 -11 -12 -13 -14 -15
leaf_value=-0.10409867903875691 0.006163381739134173 -0.063935269360516897 0.098646478896594322 -0.063766150727705403 -0.058679545972889824 0.015852563935960937 0.10984853448321802 0.036224214798848416 -0.048153569276630635 0.05035134674422035 0.21547659737425967 0.17671015870306403 0.047860506505111838 -0.056816788862319383
leaf_weight=36.861105216667056 2512.2356989625841 111.6740606687963 44.497010650113225 81.609789982438087 92.446772161871195 29.941321158781648 1.8871842082589854 7.3804592825472337 15.528685539960859 2.5082749314606181 0.31263852305710216 0.358819923363625 11.628557752817867 4.3729116842150688
leaf_count=2446 16927 1569 967 610 2638 226 17 56 373 21 20 23 118 37
internal_value=0 0.00296524 0.0057457 0.0039632 -0.0518616 -0.0392732 -0.0553081 -0.055542 -0.00600649 -0.0614247 -0.0987521 -0.101392 0.0881242 0.00160776
internal_weight=0 2775.91 2649.97 2593.85 177.337 139.804 94.334 125.936 45.47 114.182 37.5326 37.2199 56.1256 11.7534
internal_count=26048 20305 18622 17537 5743 3254 2655 1683 599 1590 2489 2469 1085 93
is_linear=0
shrinkage=0.1


Tree=37
num_leaves=14
num_cat=0
split_feature=42 48 33 51 5 96 2 12 56 4 2 0 1
split_gain=46.1282 46.2372 42.2217 46.7952 25.4474 19.9222 19.4629 15.865 11.5299 9.16819 8.46619 5.98169 5.05242
threshold=1.0000000180025095e-35 1.0000000180025095e-35 1.0000000180025095e-35 1.0000000180025095e-35 41.500000000000007 1.0000000180025095e-35 14.500000000000002 1.0000000180025095e-35 1.0000000180025095e-35 1534.0000000000002 13.500000000000002 47.500000000000007 66306.500000000015
decision_type=2 2 2 2 2 2 2 2 2 2 2 2 2
left_child=1 2 4 -4 -1 6 -3 8 10 11 -2 -9 -10
right_child=7 5 3 -5 -6 -7 -8 9 12 -11 -12 -13 -14
leaf_value=-0.0586616085836352 0.030327861553449825 0.0096373327117843296 -0.0087513429752861579 0.076249504340657123 -0.0078679400760912517 0.26858036378188488 0.058778365536420629 -0.061081542361910206 0.18113660918366142 0.12527029971958159 0.068280876801389848 0.0059804244559529107 -0.10456624250770896
leaf_weight=275.54389213211834 351.59867381863296 382.64222193416208 1464.8594413157552 67.763178424909711 153.62467253673822 3.2453444097191086 102.10310161113739 30.715067373588681 0.67289619799703171 3.9767160303890696 70.572789823636413 23.4592025578022 7.723628637380898
leaf_count=9184 2265 2682 7994 323 1983 22 633 168 14 23 443 130 184
internal_value=0 -0.00590436 -0.0127563 -0.00499313 -0.0404796 0.0216413 0.019988 0.0277431 0.0343645 -0.0212836 0.0366723 -0.0320416 -0.0816701
internal_weight=0 2449.78 1961.79 1532.62 429.169 487.991 484.745 488.719 430.568 58.151 422.171 54.1743 8.39652
internal_count=26048 22821 19484 8317 11167 3337 3315 3227 2906 321 2708 298 198
is_linear=0
shrinkage=0.1


Tree=38
num_leaves=14
num_cat=0
split_feature=56 3 4 4 4 5 3 0 1 4 57 3 12
split_gain=42.168 39.3026 41.183 48.8146 25.9215 2.7725 3.73647 2.35384 3.36817 2.07471 0.928944 0.166654 0.0445833
threshold=1.0000000180025095e-35 7073.5000000000009 1748.0000000000002 1568.5000000000002 1978.5000000000002 25.500000000000004 4737.0000000000009 60.500000000000007 257319.00000000003 2218.5000000000005 1.0000000180025095e-35 30961.500000000004 1.0000000180025095e-35
decision_type=2 2 2 2 2 2 2 2 2 2 2 2 2
left_child=1 2 3 -1 -4 11 9 10 -9 -7 -3 12 -2
right_child=5 7 4 -5 -6 6 -8 8 -10 -11 -12 -13 -14
leaf_value=-0.0010052973354175152 -0.10232834362183188 0.10143847090056433 0.099538997306530388 -0.14118810883603711 0.0034671990645801379 -0.065147652171724788 0.06844773980393519 0.071325887709043023 -0.069275115070411605 0.08865687273235523 0.052198094604510636 -0.16378531699423227 -0.12530885298951175
leaf_weight=2633.4956595953554 14.409740982577199 38.938274450600147 66.226685792207718 25.077006644569337 48.763822220265865 71.863905986770988 2.2193183638155451 9.2227665409445745 2.0898748785257331 0.88787467032670875 4.2494248896837226 0.47555500268936235 0.89675243385136205
leaf_count=19866 1265 951 520 212 267 2752 22 103 16 5 43 2 24
internal_value=0 0.00185918 0.000206662 -0.00232757 0.058798 -0.0673908 -0.0593714 0.0859572 0.0453515 -0.0632706 0.0965935 -0.105486 -0.103675
internal_weight=0 2828.06 2773.56 2658.57 114.991 90.7531 74.9711 54.5003 11.3126 72.7518 43.1877 15.782 15.3065
internal_count=26048 21978 20865 20078 787 4070 2779 1113 119 2757 994 1291 1289
is_linear=0
shrinkage=0.1


Tree=39
num_leaves=15
num_cat=0
split_feature=0 0 46 0 4 5 48 11 49 2 16 0 4 5
split_gain=39.9429 35.1606 26.5037 23.8436 22.4611 14.6812 17.1268 10.3421 8.27458 7.99318 4.59547 4.08836 3.36458 2.39407
threshold=36.500000000000007 61.500000000000007 1.0000000180025095e-35 23.500000000000004 2403.5000000000005 48.500000000000007 1.0000000180025095e-35 1.0000000180025095e-35 1.0000000180025095e-35 15.500000000000002 1.0000000180025095e-35 70.500000000000014 2218.5000000000005 49.500000000000007
decision_type=2 2 2 2 2 2 2 2 2 2 2 2 2 2
left_child=3 2 4 12 -2 6 -5 9 -7 -3 -4 -9 13 -1
right_child=1 7 10 5 -6 8 -8 11 -10 -11 -12 -13 -14 -15
leaf_value=-0.089261137648633013 0.014046282180294254 -0.042138063748629807 -0.052641098576506097 -0.028586734040468811 0.14120365818825523 0.0036420434700582872 0.016164677398446525 0.018102096945473298 0.11156682808180468 0.061458047901164992 0.079689283063836047 0.1378372840260873 0.058393078282383909 -0.028580559846523437
leaf_weight=51.630764042958617 1656.1178534589708 180.47797933593392 67.700049986131489 524.19403450470418 14.008976027369497 264.65411086380482 102.19069671444595 12.571118779480459 7.2999564483761779 7.7684670537710181 2.7301092483103266 3.6884147375822058 1.7676744610071171 7.438600759021937
leaf_count=3547 10789 1473 843 6146 69 1839 850 74 46 43 55 27 8 239
internal_value=0 0.00797022 0.0125788 -0.0169654 0.0151129 -0.0128624 -0.0212858 -0.0312538 0.00653903 -0.0378629 -0.0475115 0.0452636 -0.0775514 -0.0816196
internal_weight=0 1945.06 1740.56 959.176 1670.13 898.339 626.385 204.506 271.954 188.246 70.4302 16.2595 60.837 59.0694
internal_count=26048 13373 11756 12675 10858 8881 6996 1617 1885 1516 898 101 3794 3786
is_linear=0
shrinkage=0.1


Tree=40
num_leaves=13
num_cat=0
split_feature=3 33 64 2 12 56 2 11 0 0 1 57
split_gain=36.0015 37.1448 30.1906 29.6141 31.6498 23.7321 12.9173 5.85449 4.6248 2.50662 2.73363 1.09559
threshold=7073.5000000000009 1.0000000180025095e-35 1.0000000180025095e-35 7.5000000000000009 1.0000000180025095e-35 1.0000000180025095e-35 15.500000000000002 1.0000000180025095e-35 20.500000000000004 60.500000000000007 257319.00000000003 1.0000000180025095e-35
decision_type=2 2 2 2 2 2 2 2 2 2 2 2
left_child=1 2 5 7 -5 -1 -4 -3 -2 11 -11 -10
right_child=8 3 6 4 -6 -7 -8 -9 9 10 -12 -13
leaf_value=0.0087170626097503607 -0.12628135804312488 -0.042967378962951115 -0.046380711732725843 0.012204570869996796 -0.02777766932196106 -0.071681244605504554 0.074483059233222224 0.071228859372740469 0.10300451071486186 0.06871343270003985 -0.055312483747762799 0.048528990230200839
leaf_weight=300.33204254787415 1.0475912243127812 138.61795458383858 331.78725975891575 1791.7082332111895 222.58279238268733 41.828345217742026 9.0847074650228006 4.6396338641643515 36.382384357973933 8.8284985795617086 2.2249815091490737 4.1087906360626212
leaf_count=4422 5 1215 7197 8731 1075 2200 45 33 963 103 16 43
internal_value=0 -0.00177201 -0.0220958 0.00466206 0.00778646 -0.00111145 -0.0431595 -0.0392689 0.0817273 0.0859548 0.043748 0.0974767
internal_weight=0 2840.58 683.032 2157.55 2014.29 342.16 340.872 143.258 52.5922 51.5447 11.0535 40.4912
internal_count=26048 24918 13864 11054 9806 6622 7242 1248 1130 1125 119 1006
is_linear=0
shrinkage=0.1


Tree=41
num_leaves=14
num_cat=0
split_feature=42 48 50 51 96 0 8 12 66 2 4 0 0
split_gain=35.7242 33.8473 36.675 42.7822 16.2999 15.7177 15.3494 11.8565 8.16074 8.1301 5.60231 4.81777 2.60224
threshold=1.0000000180025095e-35 1.0000000180025095e-35 1.0000000180025095e-35 1.0000000180025095e-35 1.0000000180025095e-35 24.500000000000004 1.0000000180025095e-35 1.0000000180025095e-35 1.0000000180025095e-35 13.500000000000002 1409.5000000000002 47.500000000000007 43.500000000000007
decision_type=2 2 2 2 2 2 2 2 2 2 2 2 2
left_child=1 2 3 -1 6 -4 -3 8 9 -2 11 -9 -10
right_child=7 4 5 -5 -6 -7 -8 10 12 -11 -12 -13 -14
leaf_value=-0.02155374851688905 0.026106853182888523 0.025319059495141141 -0.096991947803977019 0.049474857483741169 0.24193430461782081 0.023179371419842689 -0.021507945003193155 -0.053300929332591444 -0.12786475737314376 0.064099180368014375 0.09640746893153819 0.0074365262214186175 -0.0058548764675976812
leaf_weight=1493.1963726966642 348.83439313713461 392.48209828604013 11.267660693265496 89.905882905703038 3.2425431068986645 319.61110269930214 85.195008761249483 29.84268169850111 4.0801915181800714 67.171325080096722 3.9718893505632868 23.222126899287105 3.0583286173641682
leaf_count=15784 2418 2740 690 739 22 2271 575 167 27 441 24 130 20
internal_value=0 -0.00523237 -0.0111915 -0.01752 0.0184841 0.0190871 0.0169673 0.0246531 0.0304222 0.0322414 -0.0181468 -0.0267211 -0.0755925
internal_weight=0 2394.9 1913.98 1583.1 480.92 330.879 477.677 480.181 423.144 416.006 57.0367 53.0648 7.13852
internal_count=26048 22821 19484 16523 3337 2961 3315 3227 2906 2859 321 297 47
is_linear=0
shrinkage=0.1


Tree=42
num_leaves=15
num_cat=0
split_feature=5 0 3 2 58 58 12 2 5 3 42 61 0 57
split_gain=33.8672 31.4839 20.5106 20.3696 20.116 19.3939 18.6939 10.3597 9.53284 8.58719 7.29368 6.81993 5.57244 2.13466
threshold=34.500000000000007 43.500000000000007 7073.5000000000009 6.5000000000000009 1.0000000180025095e-35 1.0000000180025095e-35 1.0000000180025095e-35 14.500000000000002 23.500000000000004 4243.5000000000009 1.0000000180025095e-35 1.0000000180025095e-35 27.500000000000004 1.0000000180025095e-35
decision_type=2 2 2 2 2 2 2 2 2 2 2 2 2 2
left_child=5 2 4 10 -2 7 -5 9 -9 -1 -3 12 -7 -4
right_child=1 3 13 6 -6 11 -8 8 -10 -11 -12 -13 -14 -15
leaf_value=-0.061612061717208823 -0.011187343788857433 -0.0420787047829074 0.10607226405713364 0.024294164652948039 0.032004814643340672 -0.10094894494490425 -0.017479579535709746 -0.037268078271045946 0.12968952091458424 0.047048856474000672 0.082513771970626273 -0.11709035725185324 0.035181902048323353 0.0091030270050310828
leaf_weight=171.0854724291712 1357.321551149711 71.75994979031384 17.637536132708195 922.71282362565398 117.13329500891268 3.2102251183241597 121.19591772276908 8.2318658195435983 5.8503677546977988 7.5957428803667417 5.0277372486889353 3.5351851768791667 47.498178770765662 2.6055473908781996
leaf_count=4034 13037 740 479 5965 594 27 703 42 30 61 30 24 257 25
internal_value=0 0.00311691 -0.00638351 0.0157878 -0.00775608 -0.0356206 0.0194443 -0.0504847 0.0320933 -0.0569929 -0.0339209 0.0172015 0.0265638 0.0935911
internal_weight=0 2615.39 1494.7 1120.7 1474.45 247.007 1043.91 192.763 14.0822 178.681 76.7877 54.2436 50.7084 20.2431
internal_count=26048 21573 14135 7438 13631 4475 6668 4167 72 4095 770 308 284 504
is_linear=0
shrinkage=0.1


Tree=43
num_leaves=16
num_cat=0
split_feature=5 7 4 0 1 4 0 12 2 56 42 5 4 1 5
split_gain=32.8251 31.9799 25.8753 24.0305 19.9154 18.3079 13.4677 14.0957 12.8708 10.5337 6.64264 4.98775 4.43467 2.40001 1.60772
threshold=40.500000000000007 1.0000000180025095e-35 1748.0000000000002 25.500000000000004 111370.00000000001 1978.5000000000002 42.500000000000007 1.0000000180025095e-35 14.500000000000002 1.0000000180025095e-35 1.0000000180025095e-35 39.500000000000007 1576.0000000000002 90902.000000000015 24.500000000000004
decision_type=2 2 2 2 2 2 2 2 2 2 2 2 2 2 2
left_child=1 2 3 -1 8 -4 9 -8 10 -6 -2 14 -13 -10 -3
right_child=4 11 5 -5 6 -7 7 -9 13 -11 -12 12 -14 -15 -16
leaf_value=-0.068684305287211811 -0.023838122975435992 0.02696971467016775 0.10352234849003657 -0.011628513237850403 0.011914150813968408 -0.008824833910782209 0.043005664390061302 -0.010662241410672318 0.049694387849062209 -0.07921182079231745 0.013786375951593311 0.067456459379561198 -0.04341734395708946 0.13226139179019109 -0.092009411334267099
leaf_weight=77.678942745085806 207.62849821150303 1.8888635956682254 32.376403589732945 1485.2343652062118 483.88432174362242 26.277298937551677 315.00378247722983 57.941175450570881 10.230221088975666 13.026642836630343 60.626103740185499 66.50430722348392 3.8143819319084278 5.3675651028752318 2.8483014744706452
leaf_count=4383 1359 35 257 13001 3276 161 1902 335 70 297 371 505 29 34 33
internal_value=0 -0.00906341 -0.0120171 -0.0144643 0.0127996 0.05319 0.0203049 0.0346678 -0.0102002 0.00952526 -0.0153349 0.0547513 0.0614422 0.0781076 -0.0445685
internal_weight=0 1696.62 1621.57 1562.91 1153.71 58.6537 869.856 372.945 283.852 496.911 268.255 75.0559 70.3187 15.5978 4.73717
internal_count=26048 18404 17802 17384 7644 418 5810 2237 1834 3573 1730 602 534 104 68
is_linear=0
shrinkage=0.1


Tree=44
num_leaves=13
num_cat=0
split_feature=3 33 3 3 3 64 56 42 0 0 1 57
split_gain=28.9062 29.5947 27.6877 73.1609 60.2083 26.5156 18.3679 10.3212 3.82743 2.4944 2.38891 1.15848
threshold=7073.5000000000009 1.0000000180025095e-35 3120.0000000000005 2985.0000000000005 4243.5000000000009 1.0000000180025095e-35 1.0000000180025095e-35 1.0000000180025095e-35 20.500000000000004 60.500000000000007 257319.00000000003 1.0000000180025095e-35
decision_type=2 2 2 2 2 2 2 2 2 2 2 2
left_child=1 5 3 -3 -4 6 -1 -7 -2 11 -11 -10
right_child=8 2 4 -5 -6 7 -8 -9 9 10 -12 -13
leaf_value=0.0079506256648305754 -0.1142668935122815 0.0046491389430197167 -0.16265998423870343 0.21914275838721295 0.025926465107588056 -0.049112984576418987 -0.066802603483632664 -0.004425765936267546 0.10176407701265366 0.06462046691906477 -0.051575845762556929 0.044201490361106321
leaf_weight=299.27160051325336 1.0115950256586064 2046.0898390859365 30.595178421586752 16.026503503322601 37.900662276893854 261.61666065594181 36.925682035274804 64.40975492214784 30.933227695524693 8.2214030455797893 2.2545668333768836 3.9418331813067189
leaf_count=4422 5 10595 161 72 226 6511 2200 731 963 103 16 43
internal_value=0 -0.00150045 0.00423853 0.00631616 -0.0583098 -0.0199648 -0.000259774 -0.0402846 0.078113 0.0824042 0.0396135 0.0952579
internal_weight=0 2792.84 2130.61 2062.12 68.4958 662.224 336.197 326.026 46.3626 45.351 10.476 34.8751
internal_count=26048 24918 11054 10667 387 13864 6622 7242 1130 1125 119 1006
is_linear=0
shrinkage=0.1


Tree=45
num_leaves=15
num_cat=0
split_feature=4 4 4 44 4 4 54 2 4 4 33 2 2 5
split_gain=27.8586 43.2512 77.0381 27.7718 21.9998 54.1222 24.5695 6.26784 2.39953 1.63775 0.49572 0.923756 0.0335132 0.031683
threshold=1748.0000000000002 1568.5000000000002 1534.0000000000002 1.0000000180025095e-35 1978.5000000000002 2218.5000000000005 1.0000000180025095e-35 10.500000000000002 2139.0000000000005 1894.5000000000002 1.0000000180025095e-35 11.500000000000002 12.500000000000002 41.500000000000007
decision_type=2 2 2 2 2 2 2 2 2 2 2 2 2 2
left_child=1 2 3 -1 6 8 9 -7 -6 -2 12 -12 -3 -8
right_child=4 10 -4 -5 5 7 13 -9 -10 -11 11 -13 -14 -15
leaf_value=0.00011981374057640081 0.12677559303477742 -0.10439105291706093 0.47600010159932388 -0.061471850274557649 -0.16627406510062595 0.02716792702482005 -0.12191071544870161 0.11615305410087254 -0.07612868780523005 0.092370146433359987 -0.13474034098666038 -0.19326920502246042 -0.11930916052096158 -0.13839879175916103
leaf_weight=2614.2144665122032 25.55538490600884 2.5692591243423548 3.3815301060676566 75.317389951087534 13.00036884006113 14.475028455257418 2.2205524807795873 17.467678859829903 3.8206348307430735 30.168354865163565 13.909517839550974 3.3451126068830481 3.6383477356284857 2.452696081250906
leaf_count=23888 186 123 21 1066 88 72 30 92 28 295 90 14 39 16
internal_value=0 -0.00218307 -0.00100526 -0.00160499 0.04934 -0.000621432 0.0896782 0.0758289 -0.145799 0.108149 -0.137369 -0.146087 -0.113135 -0.130564
internal_weight=0 2716.38 2692.91 2689.53 109.161 48.7637 60.397 31.9427 16.821 55.7237 23.4622 17.2546 6.20761 4.67325
internal_count=26048 25241 24975 24954 807 280 527 164 116 481 266 104 162 46
is_linear=0
shrinkage=0.1


Tree=46
num_leaves=13
num_cat=0
split_feature=46 45 43 44 3 4 53 4 5 2 2 5
split_gain=27.7341 26.6644 28.3816 28.0276 7.54991 5.00858 4.77392 4.64219 4.24567 3.69564 2.52654 1.98526
threshold=1.0000000180025095e-35 1.0000000180025095e-35 1.0000000180025095e-35 1.0000000180025095e-35 2985.0000000000005 1834.5000000000002 1.0000000180025095e-35 1894.5000000000002 55.500000000000007 10.500000000000002 5.5000000000000009 44.500000000000007
decision_type=2 2 2 2 2 2 2 2 2 2 2 2
left_child=1 2 3 -1 6 8 -3 -4 10 -10 -2 -6
right_child=5 4 7 -5 11 -7 -8 -9 9 -11 -12 -13
leaf_value=0.0083644422572823479 -0.10656537292802254 -0.073128456965108987 -0.057887595228956625 -0.053326162270031431 0.077265352762654838 0.11062394863920691 -0.032310171311265623 0.07738583362072432 -0.020065392423468803 0.11965802719932842 -0.050422194288818126 -0.020250718047672676
leaf_weight=2368.4917945596389 8.6950745088979584 37.735685265623033 78.889397710096091 76.009189138188958 6.9227082133293134 2.0017056697979561 119.03870965912938 2.6211579963564864 9.0552922133356315 2.3933239094912997 102.5642441152595 2.9891219493001699
leaf_count=19922 246 861 762 1092 56 18 663 13 87 20 2287 21
internal_value=0 0.0019544 0.00451065 0.00644624 -0.0367838 -0.0462834 -0.0421352 -0.0535376 -0.048843 0.00914368 -0.0548099 0.0478573
internal_weight=0 2692.7 2526.01 2444.5 166.686 124.71 156.774 81.5106 122.708 11.4486 111.259 9.91183
internal_count=26048 23390 21789 21014 1601 2658 1524 775 2640 107 2533 77
is_linear=0
shrinkage=0.1


Tree=47
num_leaves=15
num_cat=0
split_feature=0 0 2 12 35 5 1 2 3 4 58 51 5 2
split_gain=25.7115 23.508 22.3216 18.7907 16.325 13.7856 10.8191 12.5151 7.82654 7.76736 7.70574 7.12502 6.53205 0.538544
threshold=33.500000000000007 61.500000000000007 14.500000000000002 1.0000000180025095e-35 1.0000000180025095e-35 23.500000000000004 110457.50000000001 9.5000000000000018 10585.500000000002 2218.5000000000005 1.0000000180025095e-35 1.0000000180025095e-35 49.500000000000007 13.500000000000002
decision_type=2 2 2 2 2 2 2 2 2 2 2 2 2 2
left_child=4 2 3 -2 6 -4 10 -8 11 12 -1 -3 -6 -10
right_child=1 8 5 -5 9 -7 7 -9 13 -11 -12 -13 -14 -15
leaf_value=-0.050807082150398843 0.0094163678118884472 -0.033619571993972745 -0.14681146667617789 -0.023269080042287945 -0.06289229755569245 0.065094591012439293 -0.02397285166144765 0.012713952801829157 0.11458843263973705 0.14229418765025176 0.022878604957103595 0.1378368783194712 -0.017079548525105605 0.043279984047280867
leaf_weight=83.152171874884516 1686.7550919465721 187.20099425688386 3.1848823614418498 196.36344899982214 104.38556379778311 85.116490384563804 151.29326340230182 241.27037045359612 3.6330645345151416 2.1480233669280997 17.112927908077836 2.4554871506988993 44.34384045470506 1.4948968384414909
leaf_count=686 12069 1531 16 1251 5913 569 1564 1550 42 11 98 17 704 27
internal_value=0 0.00503775 0.00831226 0.00600807 -0.0177245 0.0574515 -0.0089131 -0.00142507 -0.0281037 -0.0465064 -0.0382306 -0.0313997 -0.0492332 0.0938007
internal_weight=0 2166.2 1971.42 1883.12 643.706 88.3014 492.829 392.564 194.784 150.877 100.265 189.656 148.729 5.12796
internal_count=26048 15522 13905 13320 10526 585 3898 3114 1617 6628 784 1548 6617 69
is_linear=0
shrinkage=0.1


Tree=48
num_leaves=13
num_cat=0
split_feature=3 5 0 58 33 2 4 0 0 0 2 57
split_gain=24.9266 23.843 21.3784 16.7315 15.324 14.2081 9.01986 4.17492 3.11484 2.60765 2.31803 1.21664
threshold=7073.5000000000009 31.500000000000004 44.500000000000007 1.0000000180025095e-35 1.0000000180025095e-35 6.5000000000000009 1789.0000000000002 27.500000000000004 20.500000000000004 60.500000000000007 10.500000000000002 1.0000000180025095e-35
decision_type=2 2 2 2 2 2 2 2 2 2 2 2
left_child=1 3 4 6 -3 -4 -1 -5 -2 11 -11 -10
right_child=8 2 5 7 -6 -7 -8 -9 9 10 -12 -13
leaf_value=-0.05300754796264423 -0.10191869645221026 -0.023421929110358689 -0.030644860123447377 -0.093255527477994857 -0.00032163274747817633 0.015867191513983452 0.077894582205160989 0.025534898459063145 0.10105739087458232 -0.0091533190548254758 0.088113657778430041 0.040825453083108559
leaf_weight=159.28685769857839 0.96447433531284232 383.09442912088707 70.597271379083395 3.1626540226861826 1146.8497889190912 942.09911061823368 5.4437814634293309 45.853492271155119 27.934751828201119 5.3965216688811761 4.4875698499381542 3.8111156970262519
leaf_count=3861 5 8251 746 30 6046 5712 34 238 963 47 72 43
internal_value=0 -0.00134237 0.00135424 -0.0334201 -0.00610589 0.0126247 -0.0486817 0.0178702 0.0757452 0.0798613 0.0350078 0.0938265
internal_weight=0 2756.39 2542.64 213.747 1529.94 1012.7 164.731 49.0161 42.5944 41.63 9.88409 31.7459
internal_count=26048 24918 20755 4163 14297 6458 3895 268 1130 1125 119 1006
is_linear=0
shrinkage=0.1


Tree=49
num_leaves=16
num_cat=0
split_feature=2 35 51 7 49 1 54 105 64 0 57 30 10 63 66
split_gain=22.8889 22.6094 21.1969 17.8781 13.672 9.67088 9.59881 7.10247 7.30906 9.24593 8.79017 6.5187 4.18609 7.84512 7.03016
threshold=13.500000000000002 1.0000000180025095e-35 1.0000000180025095e-35 1.0000000180025095e-35 1.0000000180025095e-35 161679.50000000003 1.0000000180025095e-35 1.0000000180025095e-35 1.0000000180025095e-35 55.500000000000007 1.0000000180025095e-35 1.0000000180025095e-35 1.0000000180025095e-35 1.0000000180025095e-35 1.0000000180025095e-35
decision_type=2 2 2 2 2 2 2 2 2 2 2 2 2 2 2
left_child=1 2 3 -1 6 -4 -3 12 9 -9 -10 -6 13 -2 -14
right_child=7 4 5 -5 11 -7 -8 8 10 -11 -12 -13 14 -15 -16
leaf_value=-0.0038511326242457143 -0.046557859980523891 -0.06561247125548883 0.013665052847703097 0.047524560261181646 0.056522949914861509 0.086495528515959513 -0.022250258126638778 0.050404359446241269 0.021579252095651917 -0.00085658089351833312 -0.060223300484537515 0.30760488835379174 -0.0092081543433766306 0.075855905340782848 -0.13194211311463058
leaf_weight=2067.8351396592334 9.557621487416327 75.27908210689202 34.161576510407031 70.02777368016541 3.4082783334888509 39.100269161164761 158.60962902847677 168.21454341989011 60.174913225695491 44.49364310875535 16.804347015917301 1.4843557751737533 18.553797921165827 11.576289020478725 6.2354220021516076
leaf_count=14861 61 4645 192 452 72 258 3342 1102 438 254 100 50 113 68 40
internal_value=0 -0.00351269 -0.000355769 -0.00216827 -0.0327459 0.0525351 -0.0362068 0.024334 0.0301261 0.0396818 0.00372199 0.132698 -0.0122033 0.0204954 -0.0400804
internal_weight=0 2449.91 2211.12 2137.86 238.781 73.2618 233.889 335.611 289.687 212.708 76.9793 4.89263 45.9231 21.1339 24.7892
internal_count=26048 23872 15763 15313 8109 450 7987 2176 1894 1356 538 122 282 129 153
is_linear=0
shrinkage=0.1


Tree=50
num_leaves=13
num_cat=0
split_feature=5 48 33 4 2 1 2 42 96 0 24 2
split_gain=22.5006 24.729 19.9105 16.6481 15.7516 15.4473 11.814 10.7465 9.64208 8.82999 7.98117 0.580529
threshold=40.500000000000007 1.0000000180025095e-35 1.0000000180025095e-35 2384.5000000000005 5.5000000000000009 336125.50000000006 14.500000000000002 1.0000000180025095e-35 1.0000000180025095e-35 32.500000000000007 1.0000000180025095e-35 11.500000000000002
decision_type=2 2 2 2 2 2 2 2 2 2 2 2
left_child=1 2 7 5 -4 6 -2 -1 10 -7 -3 -5
right_child=3 8 4 11 -6 9 -8 -9 -10 -11 -12 -13
leaf_value=-0.046976234584482024 0.0035073844816170584 0.031933070299055198 -0.062200812886244052 0.17715317445656914 -0.0044981969785256185 -0.0032534263285320616 0.050435412514524318 0.0046953582757246447 0.21375466839884499 0.067013979388892531 -0.0051388047406001362 0.12534586498983077
leaf_weight=217.80891186161898 972.89725545421243 165.29949606815353 49.494700295850635 3.5963239371776563 1070.7255855109543 24.189639651216567 56.775870488956571 49.373850461561233 2.5653051659464827 68.59907272644341 89.525880932807922 5.4266898259520531
leaf_count=9169 6514 1287 531 15 5885 231 406 778 17 440 737 38
internal_value=0 -0.00761685 -0.0128982 0.0107041 -0.00704767 0.00961657 0.00609498 -0.0374276 0.0208508 0.0486956 0.0189089 0.145995
internal_weight=0 1644.79 1387.4 1131.48 1120.22 1122.46 1029.67 267.183 257.391 92.7887 254.825 9.02301
internal_count=26048 18404 16363 7644 6416 7591 6920 9947 2041 671 2024 53
is_linear=0
shrinkage=0.1


Tree=51
num_leaves=16
num_cat=0
split_feature=3 4 4 4 4 4 54 2 0 3 0 3 12 33 0
split_gain=21.9626 21.8599 37.2155 52.4946 20.7745 43.6435 21.1664 2.73044 2.23127 5.10078 2.44372 0.349798 1.4398 0.342982 0.00692613
threshold=7073.5000000000009 1748.0000000000002 1568.5000000000002 1534.0000000000002 1978.5000000000002 2218.5000000000005 1.0000000180025095e-35 10.500000000000002 60.500000000000007 10543.000000000002 20.500000000000004 37702.500000000007 1.0000000180025095e-35 1.0000000180025095e-35 62.500000000000007
decision_type=2 2 2 2 2 2 2 2 2 2 2 2 2 2 2
left_child=1 2 3 -1 6 -6 -3 8 10 -10 -2 14 -13 -4 -9
right_child=7 4 13 -5 5 -7 -8 11 9 -11 -12 12 -14 -15 -16
leaf_value=-0.0024551038003819241 -0.09015044209875403 0.10322807997880123 -0.11210285912751224 0.36347080793057979 -0.13934589751495607 0.06457925106764531 -0.12786264872351047 0.1039784113354888 0.085143531964027172 -0.10820586116213381 0.079233017399951422 0.10360433257948361 -0.086552281020031666 -0.14117747540677728 0.10921539784914683
leaf_weight=2597.4115588436835 0.91026262938976543 51.353758873417974 5.4212338293436941 3.9263102188706389 15.939718661829827 30.723762519657612 4.2950155371800056 14.410396733321255 2.8676359206438056 2.6028935201466084 13.24921124614775 1.9331472925841802 0.50147168710827816 16.127477180212736 3.0619941093027583
leaf_count=23824 5 481 162 21 116 164 46 589 24 23 331 89 18 104 51
internal_value=0 -0.00121805 -0.00298693 -0.0019028 0.0441292 -0.00507928 0.0853923 0.0738521 0.047388 -0.00685266 0.068344 0.099948 0.0644367 -0.133863 0.104896
internal_weight=0 2725.2 2622.89 2601.34 102.312 46.6635 55.6488 39.537 19.63 5.47053 14.1595 19.907 2.43462 21.5487 17.4724
internal_count=26048 24918 24111 23845 807 280 527 1130 383 47 336 747 107 266 640
is_linear=0
shrinkage=0.1


Tree=52
num_leaves=13
num_cat=0
split_feature=63 0 1 2 5 90 1 5 1 48 1 1
split_gain=21.3613 20.1639 19.9164 22.0793 9.72282 8.09039 7.52133 6.10502 15.1277 6.01558 4.20477 3.03272
threshold=1.0000000180025095e-35 27.500000000000004 97424.000000000015 8.5000000000000018 39.500000000000007 1.0000000180025095e-35 30677.500000000004 49.500000000000007 219064.00000000003 1.0000000180025095e-35 145414.00000000003 23692.000000000004
decision_type=2 2 2 2 2 2 2 2 2 2 2 2
left_child=5 4 6 -4 11 7 -3 9 -9 -1 -6 -2
right_child=1 2 3 -5 10 -7 -8 8 -10 -11 -12 -13
leaf_value=-0.039715812066441508 0.24317806221552551 0.023782845012762108 -0.031433567403810626 0.012534002349240814 -0.046352388210808067 0.12125220501052636 -0.019979666087413146 -0.035856761333769804 0.066497350815598627 0.0037933858623411623 -0.007989786092012837 -0.090652694718542065
leaf_weight=213.72166883945465 0.2750092931091811 44.255980030633509 122.11035898700356 1766.288643443957 42.366300254361704 3.7605622913688412 348.77390372660011 39.281759177334607 22.83320867922157 37.327142541762441 87.743660049280152 26.011533236131072
leaf_count=3047 7 345 1538 12430 1001 33 2470 274 160 312 2179 2252
internal_value=0 0.00304717 0.00542837 0.00969091 -0.0316885 -0.0245507 -0.0150519 -0.0263016 0.00176819 -0.0332467 -0.0204814 -0.0871602
internal_weight=0 2437.83 2281.43 1888.4 156.397 316.924 393.03 313.164 62.115 251.049 130.11 26.2865
internal_count=26048 22222 16783 13968 5439 3826 2815 3793 434 3359 3180 2259
is_linear=0
shrinkage=0.1


Tree=53
num_leaves=15
num_cat=0
split_feature=42 49 8 51 50 0 1 12 66 54 56 5 1 0
split_gain=20.0928 19.1198 24.3923 19.0639 22.4506 7.98505 7.58194 7.19192 6.40756 6.34076 6.07108 4.60433 3.79478 2.13699
threshold=1.0000000180025095e-35 1.0000000180025095e-35 1.0000000180025095e-35 1.0000000180025095e-35 1.0000000180025095e-35 41.500000000000007 140112.50000000003 1.0000000180025095e-35 1.0000000180025095e-35 1.0000000180025095e-35 1.0000000180025095e-35 23.500000000000004 185067.50000000003 47.500000000000007
decision_type=2 2 2 2 2 2 2 2 2 2 2 2 2 2
left_child=1 3 6 4 -1 -5 -3 8 10 -4 -2 -9 -10 -13
right_child=7 2 9 5 -6 -7 -8 11 12 -11 -12 13 -14 -15
leaf_value=-0.011835774804394223 0.026553509495974566 -0.087167239500320959 0.091205946113064471 0.013566129306469955 0.016877158719890508 0.074131133654750367 0.017417162869634795 0.09738632285429677 -0.0064780460805855524 0.22671104089058611 -0.071290544630506561 -0.039566230547571378 -0.15510962466605938 0.0016721735486714948
leaf_weight=1803.6546766450629 397.36467549111694 9.7673824233934265 31.278805405832827 50.190338453277946 320.74177578371018 38.44205567240715 23.877185157034546 3.4145708400756112 3.9163473183289161 3.881831574253737 6.4444266557693473 30.367400700226426 3.0598690239712596 21.436490761116147
leaf_count=18616 2664 69 195 496 2961 243 196 25 27 45 195 176 20 120
internal_value=0 -0.00399085 0.0479229 -0.0056049 -0.00750069 0.0398347 -0.0129448 0.0187957 0.0233504 0.106166 0.024992 -0.0150882 -0.07167 -0.0225017
internal_weight=0 2281.83 68.8052 2213.03 2124.4 88.6324 33.6446 466.004 410.785 35.1606 403.809 55.2185 6.97622 51.8039
internal_count=26048 22821 505 22316 21577 739 265 3227 2906 240 2859 321 47 296
is_linear=0
shrinkage=0.1


Tree=54
num_leaves=16
num_cat=0
split_feature=3 3 3 3 45 46 53 2 0 3 33 5 3 27 0
split_gain=19.2255 19.5527 39.1757 77.594 19.1826 20.2074 4.18685 2.66604 2.01576 4.07722 2.04557 0.890235 0.361425 1.33544 0.00471197
threshold=7073.5000000000009 1.0000000180025095e-35 2985.0000000000005 3120.0000000000005 1.0000000180025095e-35 1.0000000180025095e-35 1.0000000180025095e-35 10.500000000000002 60.500000000000007 10543.000000000002 1.0000000180025095e-35 59.500000000000007 37702.500000000007 1.0000000180025095e-35 62.500000000000007
decision_type=2 2 2 2 2 2 2 2 2 2 2 2 2 2 2
left_child=1 4 11 -4 5 -1 -6 8 10 -10 -2 -3 14 -14 -9
right_child=7 2 3 -5 6 -7 -8 12 9 -11 -12 -13 13 -15 -16
leaf_value=0.0049339139094389953 0.024945071021902094 -0.12928979743220606 0.19269721095738265 -0.046052027261464318 -0.065933442453543711 -0.039210476619268152 -0.02528646284556775 0.10364940281254648 0.081604935856072397 -0.090666953530229813 0.10356795707889239 -0.17731835991149028 0.10333019446181076 -0.07942740795762368 0.1081925545220972
leaf_weight=2317.7495554576162 6.2853685002774018 26.834133140975613 16.156906150281429 86.447256194893271 32.663574197795242 108.55187926092185 113.04589860700071 13.012985699810089 2.7116472348570815 2.7846738025546074 6.9884861269965768 4.507547663524746 1.7611885350197547 0.51725811883807171 2.7686125952750436
leaf_count=19779 70 358 74 613 846 2570 649 589 24 23 266 29 89 18 51
internal_value=0 -0.00109731 -0.0383463 -0.00845658 0.000842552 0.00295891 -0.0343983 0.0716425 0.0452515 -0.00567545 0.0663388 -0.136197 0.0990712 0.0618401 0.104446
internal_weight=0 2705.96 133.946 102.604 2572.01 2426.3 145.709 36.8302 18.7702 5.49632 13.2739 31.3417 18.06 2.27845 15.7816
internal_count=26048 24918 1074 687 23844 22349 1495 1130 383 47 336 387 747 107 640
is_linear=0
shrinkage=0.1


Tree=55
num_leaves=15
num_cat=0
split_feature=43 0 0 4 5 48 58 3 5 0 0 1 58 3
split_gain=17.8828 17.464 17.4158 14.6075 14.345 9.6369 8.65129 6.55772 4.04299 5.84073 9.25106 3.07845 2.05864 2.28977
threshold=1.0000000180025095e-35 36.500000000000007 61.500000000000007 2403.5000000000005 39.500000000000007 1.0000000180025095e-35 1.0000000180025095e-35 10585.500000000002 52.500000000000007 50.500000000000007 57.500000000000007 35953.000000000007 1.0000000180025095e-35 6389.0000000000009
decision_type=2 2 2 2 2 2 2 2 2 2 2 2 2 2
left_child=1 4 3 -3 5 -1 -6 -4 12 11 -11 -10 13 -2
right_child=8 2 7 -5 6 -7 -8 -9 9 10 -12 -13 -14 -15
leaf_value=-0.062233745025803124 -0.06619588295104932 0.0092924114114409494 -0.025721710695826856 0.12058319573060283 -0.0090612766851013091 0.017640867731151463 0.029733614121664205 0.10946851084971961 0.032271261659190677 0.17164232797204604 -0.042439741698263998 -0.063654345550775079 -0.1648242503006152 0.054558323576488349
leaf_weight=77.964887619484216 42.743205457227305 1610.6719832974486 173.37537951022387 11.880917958915232 699.0012726939749 18.734625229146332 62.632579535245895 3.6639076489955178 4.1038116021081867 3.6409007608890516 4.5298556387424469 18.105418047867715 2.0265372246503821 1.6302063036710013
leaf_count=3249 513 11333 1461 69 8438 304 353 66 31 23 33 144 12 19
internal_value=0 0.00125968 0.0068578 0.0101073 -0.0104774 -0.0467588 -0.005871 -0.0229239 -0.0476931 -0.019334 0.0529555 -0.0459293 -0.066261 -0.0617596
internal_weight=0 2657.93 1799.59 1622.55 858.333 96.6995 761.634 177.039 76.7799 30.38 8.17076 22.2092 46.3999 44.3734
internal_count=26048 25273 12929 11402 12344 3553 8791 1527 775 231 56 175 544 532
is_linear=0
shrinkage=0.1


Tree=56
num_leaves=15
num_cat=0
split_feature=7 4 4 4 4 4 54 35 48 5 1 1 0 33
split_gain=17.3037 18.9339 30.8215 38.6743 18.4703 34.6211 18.5305 4.45679 3.48155 4.26382 3.91041 3.10452 1.54912 0.227797
